{"learner":{"attributes":{"scikit_learn":"{\"_estimator_type\": \"classifier\"}"},"feature_names":["bill_length_mm","bill_depth_mm","flipper_length_mm","body_mass_g","island_Biscoe","island_Dream","island_Torgensen","sex_female","sex_male","diet_fish","diet_krill","diet_parental","diet_squid","life_stage_adult","life_stage_chick","life_stage_juvenile","health_metrics_healthy","health_metrics_overweight","health_metrics_underweight","year_2021","year_2022","year_2023","year_2024","year_2025"],"feature_types":["float","float","float","float","float","float","float","i","i","i","i","i","i","i","i","i","i","i","i","i","i","i","i","i"],"gradient_booster":{"model":{"gbtree_model_param":{"num_parallel_tree":"1","num_trees":"600"},"iteration_indptr":[0,3,6,9,12,15,18,21,24,27,30,33,36,39,42,45,48,51,54,57,60,63,66,69,72,75,78,81,84,87,90,93,96,99,102,105,108,111,114,117,120,123,126,129,132,135,138,141,144,147,150,153,156,159,162,165,168,171,174,177,180,183,186,189,192,195,198,201,204,207,210,213,216,219,222,225,228,231,234,237,240,243,246,249,252,255,258,261,264,267,270,273,276,279,282,285,288,291,294,297,300,303,306,309,312,315,318,321,324,327,330,333,336,339,342,345,348,351,354,357,360,363,366,369,372,375,378,381,384,387,390,393,396,399,402,405,408,411,414,417,420,423,426,429,432,435,438,441,444,447,450,453,456,459,462,465,468,471,474,477,480,483,486,489,492,495,498,501,504,507,510,513,516,519,522,525,528,531,534,537,540,543,546,549,552,555,558,561,564,567,570,573,576,579,582,585,588,591,594,597,600],"tree_info":[0,1,2,0,1,2,0,1,2,0,1,2,0,1,2,0,1,2,0,1,2,0,1,2,0,1,2,0,1,2,0,1,2,0,1,2,0,1,2,0,1,2,0,1,2,0,1,2,0,1,2,0,1,2,0,1,2,0,1,2,0,1,2,0,1,2,0,1,2,0,1,2,0,1,2,0,1,2,0,1,2,0,1,2,0,1,2,0,1,2,0,1,2,0,1,2,0,1,2,0,1,2,0,1,2,0,1,2,0,1,2,0,1,2,0,1,2,0,1,2,0,1,2,0,1,2,0,1,2,0,1,2,0,1,2,0,1,2,0,1,2,0,1,2,0,1,2,0,1,2,0,1,2,0,1,2,0,1,2,0,1,2,0,1,2,0,1,2,0,1,2,0,1,2,0,1,2,0,1,2,0,1,2,0,1,2,0,1,2,0,1,2,0,1,2,0,1,2,0,1,2,0,1,2,0,1,2,0,1,2,0,1,2,0,1,2,0,1,2,0,1,2,0,1,2,0,1,2,0,1,2,0,1,2,0,1,2,0,1,2,0,1,2,0,1,2,0,1,2,0,1,2,0,1,2,0,1,2,0,1,2,0,1,2,0,1,2,0,1,2,0,1,2,0,1,2,0,1,2,0,1,2,0,1,2,0,1,2,0,1,2,0,1,2,0,1,2,0,1,2,0,1,2,0,1,2,0,1,2,0,1,2,0,1,2,0,1,2,0,1,2,0,1,2,0,1,2,0,1,2,0,1,2,0,1,2,0,1,2,0,1,2,0,1,2,0,1,2,0,1,2,0,1,2,0,1,2,0,1,2,0,1,2,0,1,2,0,1,2,0,1,2,0,1,2,0,1,2,0,1,2,0,1,2,0,1,2,0,1,2,0,1,2,0,1,2,0,1,2,0,1,2,0,1,2,0,1,2,0,1,2,0,1,2,0,1,2,0,1,2,0,1,2,0,1,2,0,1,2,0,1,2,0,1,2,0,1,2,0,1,2,0,1,2,0,1,2,0,1,2,0,1,2,0,1,2,0,1,2,0,1,2,0,1,2,0,1,2,0,1,2,0,1,2,0,1,2,0,1,2,0,1,2,0,1,2,0,1,2,0,1,2,0,1,2,0,1,2,0,1,2,0,1,2,0,1,2,0,1,2,0,1,2,0,1,2,0,1,2,0,1,2,0,1,2,0,1,2,0,1,2,0,1,2,0,1,2,0,1,2,0,1,2,0,1,2,0,1,2,0,1,2,0,1,2,0,1,2,0,1,2,0,1,2,0,1,2,0,1,2,0,1,2,0,1,2,0,1,2,0,1,2,0,1,2,0,1,2,0,1,2,0,1,2,0,1,2,0,1,2],"trees":[{"base_weights":[2.9631427E-1,7.5982116E-2,1.4894614E-1,5.740072E-1,-4.790961E-2,1.0408163E-1,3.525708E-1,7.367609E-2,-3.3173946E-1,4.2224742E-2,-4.4444453E-2,9.3134324E-5,4.0889524E-2,-1.9447098E-2,-5.5450242E-2],"categories":[],"categories_nodes":[],"categories_segments":[],"categories_sizes":[],"default_left":[0,0,0,0,0,0,0,0,0,0,0,0,0,0,0],"id":0,"left_children":[1,3,-1,5,7,-1,9,11,13,-1,-1,-1,-1,-1,-1],"loss_changes":[2.40021E2,4.7667664E1,0E0,1.554031E1,2.1393581E1,0E0,6.0680285E0,1.0591024E1,5.576336E0,0E0,0E0,0E0,0E0,0E0,0E0],"parents":[2147483647,0,0,1,1,3,3,4,4,6,6,7,7,8,8],"right_children":[2,4,-1,6,8,-1,10,12,14,-1,-1,-1,-1,-1,-1],"split_conditions":[2.359581E0,-7.792604E-1,1.4894614E-1,-7.681084E-1,6.9527304E-1,1.0408163E-1,6.134477E-1,1E0,1E0,4.2224742E-2,-4.4444453E-2,9.3134324E-5,4.0889524E-2,-1.9447098E-2,-5.5450242E-2],"split_indices":[6,0,0,3,3,0,3,13,7,0,0,0,0,0,0],"split_type":[0,0,0,0,0,0,0,0,0,0,0,0,0,0,0],"sum_hessian":[9.124444E2,7.711111E2,1.4133333E2,1.5288889E2,6.1822217E2,4.7999996E1,1.04888885E2,4.333333E2,1.8488889E2,9.6888885E1,7.9999995E0,3.5688885E2,7.644444E1,1.1555555E2,6.933333E1],"tree_param":{"num_deleted":"0","num_feature":"24","num_nodes":"15","size_leaf_vector":"1"}},{"base_weights":[-3.3092827E-1,-7.487466E-2,4.7340232E-1,-4.5801573E-2,5.560612E-1,-3.9884397E-1,2.2270739E-1,2.7026985E-2,6.378404E-1,-5.036497E-2,-3.5762788E-9,5.643564E-2,-4.3795663E-3,-1.2631583E-2,7.8947365E-2,4.8717946E-2,7.836034E-2],"categories":[],"categories_nodes":[],"categories_segments":[],"categories_sizes":[],"default_left":[0,0,0,0,0,0,0,0,0,0,0,0,0,0,0,0,0],"id":1,"left_children":[1,-1,3,5,7,9,11,13,15,-1,-1,-1,-1,-1,-1,-1,-1],"loss_changes":[3.056873E2,0E0,1.33821335E1,4.228209E0,1.1601547E1,8.035102E-1,2.341446E0,4.4256043E0,4.7253494E0,0E0,0E0,0E0,0E0,0E0,0E0,0E0,0E0],"parents":[2147483647,0,0,2,2,3,3,4,4,5,5,6,6,7,7,8,8],"right_children":[2,-1,4,6,8,10,12,14,16,-1,-1,-1,-1,-1,-1,-1,-1],"split_conditions":[1.3988003E0,-7.487466E-2,-1.1986276E0,-6.228953E-1,-1.0755311E0,1E0,-4.5007068E-1,7.051533E-1,1E0,-5.036497E-2,-3.5762788E-9,5.643564E-2,-4.3795663E-3,-1.2631583E-2,7.8947365E-2,4.8717946E-2,7.836034E-2],"split_indices":[5,0,1,0,0,21,0,1,7,0,0,0,0,0,0,0,0],"split_type":[0,0,0,0,0,0,0,0,0,0,0,0,0,0,0,0,0],"sum_hessian":[9.075555E2,5.973333E2,3.102222E2,4.2666664E1,2.6755554E2,1.8222221E1,2.4444443E1,3.5999996E1,2.3155554E2,1.4222221E1,3.9999998E0,1.0222221E1,1.4222221E1,3.0666664E1,5.333333E0,1.1599999E2,1.1555555E2],"tree_param":{"num_deleted":"0","num_feature":"24","num_nodes":"17","size_leaf_vector":"1"}},{"base_weights":[2.8684918E-2,-7.4830964E-2,7.911034E-1,3.15415E-1,1.0024884E0,-2.9126218E-1,5.0673574E-1,8.0799997E-1,1.1261048E0,-3.858922E-2,3.8961002E-3,-1.6363641E-2,6.3782446E-2,6.822978E-2,1.16370104E-1,5.7534244E-2,1.1445194E-1],"categories":[],"categories_nodes":[],"categories_segments":[],"categories_sizes":[],"default_left":[0,0,0,0,0,0,0,0,0,0,0,0,0,0,0,0,0],"id":2,"left_children":[1,-1,3,5,7,9,11,13,15,-1,-1,-1,-1,-1,-1,-1,-1],"loss_changes":[5.306539E2,0E0,4.514511E1,1.6461864E1,6.6045837E0,1.0879176E0,9.526869E0,4.795067E0,1.2538452E0,0E0,0E0,0E0,0E0,0E0,0E0,0E0,0E0],"parents":[2147483647,0,0,2,2,3,3,4,4,5,5,6,6,7,7,8,8],"right_children":[2,-1,4,6,8,10,12,14,16,-1,-1,-1,-1,-1,-1,-1,-1],"split_conditions":[9.8114496E-1,-7.4830964E-2,-3.2288837E-1,-1.2367032E0,4.0054837E-1,1E0,-1.1275619E0,1E0,-9.050582E-1,-3.858922E-2,3.8961002E-3,-1.6363641E-2,6.3782446E-2,6.822978E-2,1.16370104E-1,5.7534244E-2,1.1445194E-1],"split_indices":[4,0,1,1,1,18,2,14,3,0,0,0,0,0,0,0,0],"split_type":[0,0,0,0,0,0,0,0,0,0,0,0,0,0,0,0,0],"sum_hessian":[8.937777E2,4.4266663E2,4.5111108E2,1.3955554E2,3.1155554E2,3.3333332E1,1.0622221E2,1.2399999E2,1.8755554E2,2.5777777E1,7.5555553E0,1.7333332E1,8.8888885E1,9.377777E1,3.0222221E1,7.1111107E0,1.8044443E2],"tree_param":{"num_deleted":"0","num_feature":"24","num_nodes":"17","size_leaf_vector":"1"}},{"base_weights":[2.7950165E-1,6.0587406E-1,-4.34208E-2,1.2909016E-1,2.739969E-1,6.467601E-1,-1.6165107E-1,5.0257623E-1,1.7922306E-1,1.0555227E0,3.4766352E-1,6.897739E-1,-2.233417E-1,9.566448E-2,4.2534124E-2,5.1560577E-2,1.1740412E-2,1.2757456E-1,7.931472E-2,4.6398114E-2,-4.421699E-2,8.809868E-2,-2.452888E-2,-1.6109841E-2,-4.6647042E-2],"categories":[],"categories_nodes":[],"categories_segments":[],"categories_sizes":[],"default_left":[0,0,0,0,0,0,0,0,0,0,0,0,0,0,0,0,0,0,0,0,0,0,0,0,0],"id":3,"left_children":[1,3,5,-1,7,9,11,13,15,17,19,21,23,-1,-1,-1,-1,-1,-1,-1,-1,-1,-1,-1,-1],"loss_changes":[9.859486E1,1.05408615E2,3.8541687E1,0E0,6.7263145E0,8.079933E0,2.1319073E1,2.8079262E0,4.5971284E0,6.46574E-1,4.0075393E0,5.1273127E0,5.6222305E0,0E0,0E0,0E0,0E0,0E0,0E0,0E0,0E0,0E0,0E0,0E0,0E0],"parents":[2147483647,0,0,1,1,2,2,4,4,5,5,6,6,7,7,8,8,9,9,10,10,11,11,12,12],"right_children":[2,4,6,-1,8,10,12,14,16,18,20,22,24,-1,-1,-1,-1,-1,-1,-1,-1,-1,-1,-1,-1],"split_conditions":[9.8114496E-1,1.3988003E0,-8.204091E-1,1.2909016E-1,-7.7103066E-1,-7.681084E-1,-1.2366661E0,1E0,-1.1798191E0,-1.0979937E0,4.2223486E-1,-7.14595E-1,1.3894964E0,9.566448E-2,4.2534124E-2,5.1560577E-2,1.1740412E-2,1.2757456E-1,7.931472E-2,4.6398114E-2,-4.421699E-2,8.809868E-2,-2.452888E-2,-1.6109841E-2,-4.6647042E-2],"split_indices":[4,5,0,0,0,3,3,10,3,3,3,2,3,0,0,0,0,0,0,0,0,0,0,0,0],"split_type":[0,0,0,0,0,0,0,0,0,0,0,0,0,0,0,0,0,0,0,0,0,0,0,0,0],"sum_hessian":[9.3424786E2,4.6420615E2,4.7004175E2,1.505553E2,3.1365082E2,6.8089905E1,4.0195184E2,9.066893E1,2.229819E2,2.7701878E1,4.0388023E1,2.6468252E1,3.7548358E2,1.1525249E1,7.9143684E1,3.3477306E1,1.895046E2,1.296093E1,1.4740948E1,3.5563236E1,4.824787E0,2.202263E1,4.4456215E0,3.0027332E2,7.521026E1],"tree_param":{"num_deleted":"0","num_feature":"24","num_nodes":"25","size_leaf_vector":"1"}},{"base_weights":[-3.2023495E-1,-7.214569E-2,4.464185E-1,-1.1357505E-4,4.9801505E-1,7.058866E-2,-7.52752E-2,4.2138472E-1,7.2182494E-1,-1.777023E-2,3.7807103E-2,4.6522867E-2,3.207367E-3,7.7436656E-2,3.784884E-2],"categories":[],"categories_nodes":[],"categories_segments":[],"categories_sizes":[],"default_left":[0,0,0,0,0,0,0,0,0,0,0,0,0,0,0],"id":4,"left_children":[1,-1,3,5,7,-1,9,11,13,-1,-1,-1,-1,-1,-1],"loss_changes":[2.7426785E2,0E0,7.063526E0,1.7912852E0,4.4092636E0,0E0,1.4838029E0,3.5205803E0,9.461212E-1,0E0,0E0,0E0,0E0,0E0,0E0],"parents":[2147483647,0,0,2,2,3,3,4,4,6,6,7,7,8,8],"right_children":[2,-1,4,6,8,-1,10,12,14,-1,-1,-1,-1,-1,-1],"split_conditions":[1.3988003E0,-7.214569E-2,-1.35093E0,-2.3789716E0,5.9092647E-1,7.058866E-2,1E0,9.7481513E-1,1E0,-1.777023E-2,3.7807103E-2,4.6522867E-2,3.207367E-3,7.7436656E-2,3.784884E-2],"split_indices":[5,0,1,1,1,0,19,2,19,0,0,0,0,0,0],"split_type":[0,0,0,0,0,0,0,0,0,0,0,0,0,0,0],"sum_hessian":[8.8959607E2,5.8401526E2,3.055808E2,3.1755644E1,2.7382516E2,2.2480373E0,2.9507607E1,2.0613078E2,6.769439E1,2.4565422E1,4.9421854E0,1.8509096E2,2.103981E1,5.762108E1,1.0073311E1],"tree_param":{"num_deleted":"0","num_feature":"24","num_nodes":"15","size_leaf_vector":"1"}},{"base_weights":[4.404152E-2,-7.2218314E-2,7.3228556E-1,2.612217E-1,9.363304E-1,-1.952951E-1,4.1234735E-1,8.0335325E-1,1.0954652E0,-3.636174E-2,2.761817E-2,2.2316583E-2,6.5458044E-2,7.0380695E-2,9.619855E-2,-1.6400444E-3,1.10567264E-1],"categories":[],"categories_nodes":[],"categories_segments":[],"categories_sizes":[],"default_left":[0,0,0,0,0,0,0,0,0,0,0,0,0,0,0,0,0],"id":5,"left_children":[1,-1,3,5,7,9,11,13,15,-1,-1,-1,-1,-1,-1,-1,-1],"loss_changes":[4.8474097E2,0E0,4.6296814E1,1.0272954E1,6.261383E0,3.070192E0,4.9549656E0,2.2853546E0,1.7304993E0,0E0,0E0,0E0,0E0,0E0,0E0,0E0,0E0],"parents":[2147483647,0,0,2,2,3,3,4,4,5,5,6,6,7,7,8,8],"right_children":[2,-1,4,6,8,10,12,14,16,-1,-1,-1,-1,-1,-1,-1,-1],"split_conditions":[9.8114496E-1,-7.2218314E-2,-3.2288837E-1,-1.2367032E0,7.432289E-1,1E0,1E0,6.2809014E-1,-1.1091908E0,-3.636174E-2,2.761817E-2,2.2316583E-2,6.5458044E-2,7.0380695E-2,9.619855E-2,-1.6400444E-3,1.10567264E-1],"split_indices":[4,0,1,1,1,18,14,3,3,0,0,0,0,0,0,0,0],"split_type":[0,0,0,0,0,0,0,0,0,0,0,0,0,0,0,0,0],"sum_hessian":[9.171995E2,4.3398883E2,4.8321066E2,1.4673474E2,3.3647592E2,3.642144E1,1.103133E2,1.8659805E2,1.4987787E2,2.7008045E1,9.413394E0,6.3018105E1,4.72952E1,1.1799164E2,6.860642E1,1.3579069E0,1.4851996E2],"tree_param":{"num_deleted":"0","num_feature":"24","num_nodes":"17","size_leaf_vector":"1"}},{"base_weights":[2.5975364E-1,8.314167E-2,1.1462428E-1,4.3307954E-1,-1.18254215E-1,7.684754E-1,2.249595E-1,1.292073E-1,-2.529183E-1,1.0561215E-1,5.9034158E-2,1.1495831E-2,6.001937E-2,7.705327E-2,9.432223E-3,2.291895E-2,-3.1456452E-2],"categories":[],"categories_nodes":[],"categories_segments":[],"categories_sizes":[],"default_left":[0,0,0,0,0,0,0,0,0,0,0,0,0,0,0,0,0],"id":6,"left_children":[1,3,-1,5,7,9,11,13,15,-1,-1,-1,-1,-1,-1,-1,-1],"loss_changes":[1.4532945E2,5.47137E1,0E0,1.9618874E1,1.6464138E1,4.9184456E0,7.2113667E0,3.8297179E0,9.572199E0,0E0,0E0,0E0,0E0,0E0,0E0,0E0,0E0],"parents":[2147483647,0,0,1,1,3,3,4,4,5,5,6,6,7,7,8,8],"right_children":[2,4,-1,6,8,10,12,14,16,-1,-1,-1,-1,-1,-1,-1,-1],"split_conditions":[2.359581E0,-3.2288837E-1,1.1462428E-1,-5.9820604E-1,9.8114496E-1,-1.1224763E0,1E0,-1.2977343E0,-8.368686E-1,1.0561215E-1,5.9034158E-2,1.1495831E-2,6.001937E-2,7.705327E-2,9.432223E-3,2.291895E-2,-3.1456452E-2],"split_indices":[6,1,0,0,4,1,9,0,0,0,0,0,0,0,0,0,0],"split_type":[0,0,0,0,0,0,0,0,0,0,0,0,0,0,0,0,0],"sum_hessian":[9.278484E2,7.746179E2,1.532305E2,2.825388E2,4.920791E2,1.0715718E2,1.753816E2,1.7342685E2,3.1865225E2,3.909643E1,6.806075E1,1.3663342E2,3.8748184E1,7.859034E0,1.6556781E2,3.5817978E1,2.828343E2],"tree_param":{"num_deleted":"0","num_feature":"24","num_nodes":"17","size_leaf_vector":"1"}},{"base_weights":[-2.8041193E-1,1.00717194E-1,-6.98394E-2,4.0755263E-1,-6.922444E-2,2.5677076E-2,4.6637708E-1,-2.7157355E-2,2.2246718E-2,1.4135844E-2,5.1733542E-2],"categories":[],"categories_nodes":[],"categories_segments":[],"categories_sizes":[],"default_left":[0,0,0,0,0,0,0,0,0,0,0],"id":7,"left_children":[1,3,-1,5,-1,7,9,-1,-1,-1,-1],"loss_changes":[1.401359E2,1.123895E2,0E0,7.464863E0,0E0,2.7211566E0,4.7027473E0,0E0,0E0,0E0,0E0],"parents":[2147483647,0,0,1,1,3,3,5,5,6,6],"right_children":[2,4,-1,6,-1,8,10,-1,-1,-1,-1],"split_conditions":[9.8114496E-1,2.359581E0,-6.98394E-2,-1.1986276E0,-6.922444E-2,-6.228953E-1,-1.0755311E0,-2.7157355E-2,2.2246718E-2,1.4135844E-2,5.1733542E-2],"split_indices":[4,6,0,1,0,0,0,0,0,0,0],"split_type":[0,0,0,0,0,0,0,0,0,0,0],"sum_hessian":[8.7822815E2,4.5976187E2,4.1846625E2,3.3184207E2,1.2791982E2,4.4485867E1,2.873562E2,1.7568583E1,2.6917284E1,3.945857E1,2.4789763E2],"tree_param":{"num_deleted":"0","num_feature":"24","num_nodes":"11","size_leaf_vector":"1"}},{"base_weights":[3.15154E-2,-6.9862574E-2,6.29673E-1,-2.7004253E-2,7.446171E-1,-4.6762434E-1,2.608658E-1,1.9639708E-1,8.161122E-1,-5.447591E-2,2.1274475E-2,4.4635523E-2,-1.1183928E-2,-1.0735027E-2,8.449904E-2,9.141658E-2,6.329256E-2],"categories":[],"categories_nodes":[],"categories_segments":[],"categories_sizes":[],"default_left":[0,0,0,0,0,0,0,0,0,0,0,0,0,0,0,0,0],"id":8,"left_children":[1,-1,3,5,7,9,11,13,15,-1,-1,-1,-1,-1,-1,-1,-1],"loss_changes":[3.961512E2,0E0,3.7652695E1,9.664779E0,1.6471558E1,1.6948943E0,3.2401595E0,9.9946165E0,6.158325E0,0E0,0E0,0E0,0E0,0E0,0E0,0E0,0E0],"parents":[2147483647,0,0,2,2,3,3,4,4,5,5,6,6,7,7,8,8],"right_children":[2,-1,4,6,8,10,12,14,16,-1,-1,-1,-1,-1,-1,-1,-1],"split_conditions":[9.8114496E-1,-6.9862574E-2,-8.9402264E-1,-4.8298964E-1,-8.368686E-1,-9.7017384E-1,1E0,5.9092647E-1,1E0,-5.447591E-2,2.1274475E-2,4.4635523E-2,-1.1183928E-2,-1.0735027E-2,8.449904E-2,9.141658E-2,6.329256E-2],"split_indices":[4,0,1,0,0,1,17,1,13,0,0,0,0,0,0,0,0],"split_type":[0,0,0,0,0,0,0,0,0,0,0,0,0,0,0,0,0],"sum_hessian":[9.0505804E2,4.074888E2,4.975692E2,7.4234085E1,4.2333514E2,2.9087584E1,4.5146503E1,4.927147E1,3.7406366E2,2.6304688E1,2.7828956E0,3.0012264E1,1.5134238E1,3.4124752E1,1.5146718E1,2.4104836E2,1.3301532E2],"tree_param":{"num_deleted":"0","num_feature":"24","num_nodes":"17","size_leaf_vector":"1"}},{"base_weights":[2.1709614E-1,5.862688E-2,1.03679396E-1,3.631072E-1,-1.2073109E-1,6.437657E-1,2.2209328E-1,8.7785535E-2,-2.399906E-1,9.498267E-2,4.350993E-2,6.3900664E-2,1.296851E-2,-8.534215E-3,2.5667533E-2,-3.647386E-2,-2.0151846E-3],"categories":[],"categories_nodes":[],"categories_segments":[],"categories_sizes":[],"default_left":[0,0,0,0,0,0,0,0,0,0,0,0,0,0,0,0,0],"id":9,"left_children":[1,3,-1,5,7,9,11,13,15,-1,-1,-1,-1,-1,-1,-1,-1],"loss_changes":[1.2004744E2,4.241675E1,0E0,1.1250217E1,1.21820345E1,5.7013626E0,7.357787E0,5.245908E0,8.5316925E0,0E0,0E0,0E0,0E0,0E0,0E0,0E0,0E0],"parents":[2147483647,0,0,1,1,3,3,4,4,5,5,6,6,7,7,8,8],"right_children":[2,4,-1,6,8,10,12,14,16,-1,-1,-1,-1,-1,-1,-1,-1],"split_conditions":[2.359581E0,-3.2288837E-1,1.03679396E-1,-1.1605519E0,9.8114496E-1,-6.3935477E-1,-9.85004E-1,1E0,1E0,9.498267E-2,4.350993E-2,6.3900664E-2,1.296851E-2,-8.534215E-3,2.5667533E-2,-3.647386E-2,-2.0151846E-3],"split_indices":[6,1,0,1,4,0,0,8,13,0,0,0,0,0,0,0,0],"split_type":[0,0,0,0,0,0,0,0,0,0,0,0,0,0,0,0,0],"sum_hessian":[9.236427E2,7.7490466E2,1.4873804E2,2.8687598E2,4.8802872E2,9.474358E1,1.9213239E2,1.7766254E2,3.1036618E2,3.6968388E1,5.7775196E1,3.378614E1,1.5834625E2,8.7974846E1,8.968768E1,1.9758629E2,1.12779884E2],"tree_param":{"num_deleted":"0","num_feature":"24","num_nodes":"17","size_leaf_vector":"1"}},{"base_weights":[-2.8922343E-1,-6.779485E-2,3.6236453E-1,1.792669E-1,4.866261E-1,-2.6473927E-1,2.6722744E-1,-1.6107203E-1,5.119088E-1,3.8855534E-2,-3.594541E-2,3.005979E-2,-6.1542142E-2,-5.8013726E-2,2.4772892E-2,6.0054954E-2,3.5752773E-2],"categories":[],"categories_nodes":[],"categories_segments":[],"categories_sizes":[],"default_left":[0,0,0,0,0,0,0,0,0,0,0,0,0,0,0,0,0],"id":10,"left_children":[1,-1,3,5,7,9,11,13,15,-1,-1,-1,-1,-1,-1,-1,-1],"loss_changes":[2.1447975E2,0E0,7.118286E0,5.1330795E0,3.162346E0,1.4969366E0,3.3862624E0,1.4844959E0,2.2656136E0,0E0,0E0,0E0,0E0,0E0,0E0,0E0,0E0],"parents":[2147483647,0,0,2,2,3,3,4,4,5,5,6,6,7,7,8,8],"right_children":[2,-1,4,6,8,10,12,14,16,-1,-1,-1,-1,-1,-1,-1,-1],"split_conditions":[1.3988003E0,-6.779485E-2,-3.990396E-1,-9.85004E-1,-1.3388829E0,-1.390359E0,1.3877821E0,1.7209466E-1,1E0,3.8855534E-2,-3.594541E-2,3.005979E-2,-6.1542142E-2,-5.8013726E-2,2.4772892E-2,6.0054954E-2,3.5752773E-2],"split_indices":[5,0,1,0,0,2,2,1,13,0,0,0,0,0,0,0,0],"split_type":[0,0,0,0,0,0,0,0,0,0,0,0,0,0,0,0,0],"sum_hessian":[8.448102E2,5.2911163E2,3.1569852E2,1.2862057E2,1.8707794E2,2.0935062E1,1.0768552E2,6.8264303E0,1.8025151E2,2.2580194E0,1.8677042E1,1.0439796E2,3.2875576E0,3.1639352E0,3.6624951E0,1.12669975E2,6.758154E1],"tree_param":{"num_deleted":"0","num_feature":"24","num_nodes":"17","size_leaf_vector":"1"}},{"base_weights":[3.4163643E-2,-6.7834616E-2,5.922325E-1,2.2278579E-1,7.417791E-1,-5.012229E-1,3.6155984E-1,2.949751E-1,7.9652435E-1,-5.6014825E-2,-8.35278E-3,-2.9474711E-2,4.433298E-2,1.5920394E-3,7.876298E-2,9.291305E-2,6.0526796E-2],"categories":[],"categories_nodes":[],"categories_segments":[],"categories_sizes":[],"default_left":[0,0,0,0,0,0,0,0,0,0,0,0,0,0,0,0,0],"id":11,"left_children":[1,-1,3,5,7,9,11,13,15,-1,-1,-1,-1,-1,-1,-1,-1],"loss_changes":[3.5353238E2,0E0,2.7379547E1,1.4758542E1,8.43544E0,5.37899E-1,6.695693E0,5.5249224E0,7.4313507E0,0E0,0E0,0E0,0E0,0E0,0E0,0E0,0E0],"parents":[2147483647,0,0,2,2,3,3,4,4,5,5,6,6,7,7,8,8],"right_children":[2,-1,4,6,8,10,12,14,16,-1,-1,-1,-1,-1,-1,-1,-1],"split_conditions":[9.8114496E-1,-6.7834616E-2,-3.2288837E-1,-8.368686E-1,-8.368686E-1,-3.8830955E-2,-1.4795582E0,6.6707766E-1,1E0,-5.6014825E-2,-8.35278E-3,-2.9474711E-2,4.433298E-2,1.5920394E-3,7.876298E-2,9.291305E-2,6.0526796E-2],"split_indices":[4,0,1,0,0,2,3,1,13,0,0,0,0,0,0,0,0],"split_type":[0,0,0,0,0,0,0,0,0,0,0,0,0,0,0,0,0],"sum_hessian":[8.870896E2,3.8953653E2,4.9755307E2,1.4408606E2,3.53467E2,2.2755386E1,1.21330666E2,3.9279003E1,3.14188E2,1.9643223E1,3.1121638E0,1.3153411E1,1.0817725E2,2.5734507E1,1.35444975E1,1.8326476E2,1.3092323E2],"tree_param":{"num_deleted":"0","num_feature":"24","num_nodes":"17","size_leaf_vector":"1"}},{"base_weights":[2.1974689E-1,7.649322E-2,9.5175505E-2,3.8338616E-1,-1.2841961E-1,6.410803E-1,2.5603512E-1,5.0228164E-3,-3.396894E-1,6.609237E-2,-4.6170816E-2,4.364196E-2,-1.0451544E-3,-1.2655633E-2,3.4383725E-2,-9.721251E-3,-4.389758E-2],"categories":[],"categories_nodes":[],"categories_segments":[],"categories_sizes":[],"default_left":[0,0,0,0,0,0,0,0,0,0,0,0,0,0,0,0,0],"id":12,"left_children":[1,3,-1,5,7,9,11,13,15,-1,-1,-1,-1,-1,-1,-1,-1],"loss_changes":[9.71841E1,4.8896603E1,0E0,1.005011E1,1.3153837E1,2.5432777E0,1.0097654E1,1.2834047E1,4.305401E0,0E0,0E0,0E0,0E0,0E0,0E0,0E0,0E0],"parents":[2147483647,0,0,1,1,3,3,4,4,5,5,6,6,7,7,8,8],"right_children":[2,4,-1,6,8,10,12,14,16,-1,-1,-1,-1,-1,-1,-1,-1],"split_conditions":[2.359581E0,-2.4673712E-1,9.5175505E-2,-1.1224763E0,7.8130454E-1,1.1491884E0,1E0,1E0,9.8114496E-1,6.609237E-2,-4.6170816E-2,4.364196E-2,-1.0451544E-3,-1.2655633E-2,3.4383725E-2,-9.721251E-3,-4.389758E-2],"split_indices":[6,1,0,1,1,3,11,13,4,0,0,0,0,0,0,0,0],"split_type":[0,0,0,0,0,0,0,0,0,0,0,0,0,0,0,0,0],"sum_hessian":[9.2646765E2,7.757569E2,1.5071077E2,3.102428E2,4.6551407E2,1.0127646E2,2.0896635E2,2.8590604E2,1.7960802E2,9.987991E1,1.3965447E0,1.24234505E2,8.473184E1,2.0638326E2,7.95228E1,5.275328E1,1.26854744E2],"tree_param":{"num_deleted":"0","num_feature":"24","num_nodes":"17","size_leaf_vector":"1"}},{"base_weights":[-2.8567654E-1,-6.6030845E-2,3.057281E-1,1.7542821E-1,4.2017058E-1,2.0262735E-2,5.5079556E-1,7.1429856E-2,4.8609814E-1,-4.6821706E-2,1.0893777E-2,7.001855E-2,2.5044892E-2,1.2183151E-2,-4.5438144E-2,1.1701784E-2,5.4214407E-2],"categories":[],"categories_nodes":[],"categories_segments":[],"categories_sizes":[],"default_left":[0,0,0,0,0,0,0,0,0,0,0,0,0,0,0,0,0],"id":13,"left_children":[1,-1,3,5,7,9,11,13,15,-1,-1,-1,-1,-1,-1,-1,-1],"loss_changes":[1.8440994E2,0E0,4.7444515E0,8.888771E0,3.9038696E0,4.779011E0,1.8281479E0,8.082173E-1,2.9131508E0,0E0,0E0,0E0,0E0,0E0,0E0,0E0,0E0],"parents":[2147483647,0,0,2,2,3,3,4,4,5,5,6,6,7,7,8,8],"right_children":[2,-1,4,6,8,10,12,14,16,-1,-1,-1,-1,-1,-1,-1,-1],"split_conditions":[1.3988003E0,-6.6030845E-2,1E0,-1.2088093E-1,-1.0755311E0,-8.2722235E-1,7.843908E-1,1E0,-1.3528166E0,-4.6821706E-2,1.0893777E-2,7.001855E-2,2.5044892E-2,1.2183151E-2,-4.5438144E-2,1.1701784E-2,5.4214407E-2],"split_indices":[5,0,7,0,0,2,0,17,2,0,0,0,0,0,0,0,0],"split_type":[0,0,0,0,0,0,0,0,0,0,0,0,0,0,0,0,0],"sum_hessian":[8.304175E2,5.0830774E2,3.221097E2,1.5180415E2,1.7030557E2,1.0815156E2,4.3652596E1,2.7407896E1,1.4289767E2,1.5958978E1,9.219258E1,2.8263369E1,1.5389224E1,2.5711607E1,1.6962891E0,1.924581E1,1.2365187E2],"tree_param":{"num_deleted":"0","num_feature":"24","num_nodes":"17","size_leaf_vector":"1"}},{"base_weights":[3.5032753E-2,-6.6059254E-2,5.5096763E-1,-2.2636975E-1,6.305976E-1,-6.698405E-2,-2.6602384E-2,1.15737036E-1,7.010802E-1,-1.8012293E-2,2.6704406E-2,-1.9516787E-2,6.7238264E-2,5.5341918E-2,8.045152E-2],"categories":[],"categories_nodes":[],"categories_segments":[],"categories_sizes":[],"default_left":[0,0,0,0,0,0,0,0,0,0,0,0,0,0,0],"id":14,"left_children":[1,-1,3,5,7,-1,9,11,13,-1,-1,-1,-1,-1,-1],"loss_changes":[3.1748483E2,0E0,3.1579468E1,4.2281084E0,1.6645828E1,0E0,1.5846387E0,9.944094E0,5.7441406E0,0E0,0E0,0E0,0E0,0E0,0E0],"parents":[2147483647,0,0,2,2,3,3,4,4,6,6,7,7,8,8],"right_children":[2,-1,4,6,8,-1,10,12,14,-1,-1,-1,-1,-1,-1],"split_conditions":[9.8114496E-1,-6.6059254E-2,-1.1224763E0,-6.64044E-1,-8.204091E-1,-6.698405E-2,-6.423558E-1,3.6247274E-1,2.1017028E-1,-1.8012293E-2,2.6704406E-2,-1.9516787E-2,6.7238264E-2,5.5341918E-2,8.045152E-2],"split_indices":[4,0,1,0,0,0,3,1,1,0,0,0,0,0,0],"split_type":[0,0,0,0,0,0,0,0,0,0,0,0,0,0,0],"sum_hessian":[8.825977E2,3.75729E2,5.0686868E2,4.6927315E1,4.5994138E2,1.3843199E1,3.3084118E1,5.5700844E1,4.0424054E2,2.1979612E1,1.1104505E1,3.6155945E1,1.9544899E1,1.691363E2,2.3510423E2],"tree_param":{"num_deleted":"0","num_feature":"24","num_nodes":"15","size_leaf_vector":"1"}},{"base_weights":[2.0728938E-1,7.210228E-2,8.8410996E-2,3.1888875E-1,-7.774657E-2,5.872814E-1,1.5322553E-1,2.8282645E-1,-1.4515474E-1,8.021836E-2,4.6179127E-2,6.2306635E-3,4.6016127E-2,4.955356E-2,-1.7201155E-2,-2.8140957E-2,4.904435E-3],"categories":[],"categories_nodes":[],"categories_segments":[],"categories_sizes":[],"default_left":[0,0,0,0,0,0,0,0,0,0,0,0,0,0,0,0,0],"id":15,"left_children":[1,3,-1,5,7,9,11,13,15,-1,-1,-1,-1,-1,-1,-1,-1],"loss_changes":[8.495639E1,2.8706915E1,0E0,1.2947254E1,1.1789898E1,2.6380424E0,5.0686784E0,7.4838543E0,1.0807275E1,0E0,0E0,0E0,0E0,0E0,0E0,0E0,0E0],"parents":[2147483647,0,0,1,1,3,3,4,4,5,5,6,6,7,7,8,8],"right_children":[2,4,-1,6,8,10,12,14,16,-1,-1,-1,-1,-1,-1,-1,-1],"split_conditions":[2.359581E0,-3.2288837E-1,8.8410996E-2,-6.228953E-1,-8.368686E-1,-1.1224763E0,1E0,6.290021E-1,1E0,8.021836E-2,4.6179127E-2,6.2306635E-3,4.6016127E-2,4.955356E-2,-1.7201155E-2,-2.8140957E-2,4.904435E-3],"split_indices":[6,1,0,0,0,1,9,1,13,0,0,0,0,0,0,0,0],"split_type":[0,0,0,0,0,0,0,0,0,0,0,0,0,0,0,0,0],"sum_hessian":[9.2820807E2,7.7459766E2,1.5361041E2,2.9221683E2,4.823808E2,1.1055712E2,1.8165971E2,7.5472916E1,4.069079E2,3.8770367E1,7.178676E1,1.410744E2,4.0585323E1,5.1363045E1,2.4109873E1,2.3886516E2,1.6804272E2],"tree_param":{"num_deleted":"0","num_feature":"24","num_nodes":"17","size_leaf_vector":"1"}},{"base_weights":[-2.5562876E-1,-6.443974E-2,2.917203E-1,7.699586E-2,3.530332E-1,-1.1176325E-2,3.001465E-1,2.4636556E-1,4.5764926E-1,-4.623748E-2,1.0771345E-2,7.0574425E-2,7.335265E-5,-4.991432E-3,3.5482477E-2,7.625012E-2,3.339744E-2],"categories":[],"categories_nodes":[],"categories_segments":[],"categories_sizes":[],"default_left":[0,0,0,0,0,0,0,0,0,0,0,0,0,0,0,0,0],"id":16,"left_children":[1,-1,3,5,7,9,11,13,15,-1,-1,-1,-1,-1,-1,-1,-1],"loss_changes":[1.7008226E2,0E0,4.3472137E0,1.4806252E0,2.768364E0,2.9884074E0,2.5862036E0,4.1953125E0,4.615736E0,0E0,0E0,0E0,0E0,0E0,0E0,0E0,0E0],"parents":[2147483647,0,0,2,2,3,3,4,4,5,5,6,6,7,7,8,8],"right_children":[2,-1,4,6,8,10,12,14,16,-1,-1,-1,-1,-1,-1,-1,-1],"split_conditions":[1.3988003E0,-6.443974E-2,-8.450984E-1,-1.8900074E-1,1E0,1E0,1.1133883E-1,-5.2688277E-1,-5.899763E-1,-4.623748E-2,1.0771345E-2,7.0574425E-2,7.335265E-5,-4.991432E-3,3.5482477E-2,7.625012E-2,3.339744E-2],"split_indices":[5,0,0,2,7,7,2,2,0,0,0,0,0,0,0,0,0],"split_type":[0,0,0,0,0,0,0,0,0,0,0,0,0,0,0,0,0],"sum_hessian":[7.9740485E2,4.6613986E2,3.31265E2,7.4081055E1,2.5718396E2,5.3780857E1,2.0300196E1,1.290045E2,1.2817946E2,1.0613284E1,4.3167572E1,8.044999E0,1.2255197E1,3.4714386E1,9.429011E1,3.550245E1,9.267702E1],"tree_param":{"num_deleted":"0","num_feature":"24","num_nodes":"17","size_leaf_vector":"1"}},{"base_weights":[1.8272279E-2,-6.4552896E-2,4.7738358E-1,1.6614924E-1,6.08745E-1,-3.1949893E-1,3.0865517E-1,1.972259E-1,6.552575E-1,-5.1533498E-2,2.7609272E-3,4.3751497E-2,4.8299567E-4,9.0374175E-4,5.7809252E-2,7.7181265E-2,4.6402626E-2],"categories":[],"categories_nodes":[],"categories_segments":[],"categories_sizes":[],"default_left":[0,0,0,0,0,0,0,0,0,0,0,0,0,0,0,0,0],"id":17,"left_children":[1,-1,3,5,7,9,11,13,15,-1,-1,-1,-1,-1,-1,-1,-1],"loss_changes":[2.6176254E2,0E0,2.065657E1,1.062272E1,6.697418E0,2.3926928E0,4.620656E0,2.6932154E0,6.77446E0,0E0,0E0,0E0,0E0,0E0,0E0,0E0,0E0],"parents":[2147483647,0,0,2,2,3,3,4,4,5,5,6,6,7,7,8,8],"right_children":[2,-1,4,6,8,10,12,14,16,-1,-1,-1,-1,-1,-1,-1,-1],"split_conditions":[9.8114496E-1,-6.4552896E-2,-3.2288837E-1,-7.381117E-1,-8.697876E-1,-7.036445E-1,1E0,6.6707766E-1,1E0,-5.1533498E-2,2.7609272E-3,4.3751497E-2,4.8299567E-4,9.0374175E-4,5.7809252E-2,7.7181265E-2,4.6402626E-2],"split_indices":[4,0,1,0,0,1,9,1,13,0,0,0,0,0,0,0,0],"split_type":[0,0,0,0,0,0,0,0,0,0,0,0,0,0,0,0,0],"sum_hessian":[8.5690643E2,3.5018668E2,5.0671973E2,1.5106543E2,3.556543E2,3.398963E1,1.1707579E2,3.664843E1,3.1900586E2,2.1419977E1,1.25696535E1,8.189997E1,3.517582E1,2.5213846E1,1.1434585E1,1.963158E2,1.2269007E2],"tree_param":{"num_deleted":"0","num_feature":"24","num_nodes":"17","size_leaf_vector":"1"}},{"base_weights":[1.8247359E-1,5.407493E-2,8.29124E-2,2.4512732E-1,-1.361388E-1,5.072196E-1,1.4592224E-1,7.350738E-2,-2.525268E-1,7.5085856E-2,3.7684366E-2,2.7693132E-2,-9.050796E-3,2.0198967E-2,-1.6186554E-2,-3.788388E-2,-6.110523E-3],"categories":[],"categories_nodes":[],"categories_segments":[],"categories_sizes":[],"default_left":[0,0,0,0,0,0,0,0,0,0,0,0,0,0,0,0,0],"id":18,"left_children":[1,3,-1,5,7,9,11,13,15,-1,-1,-1,-1,-1,-1,-1,-1],"loss_changes":[7.656798E1,2.8049562E1,0E0,9.935652E0,9.460395E0,3.0619354E0,8.718731E0,4.2335176E0,5.998479E0,0E0,0E0,0E0,0E0,0E0,0E0,0E0,0E0],"parents":[2147483647,0,0,1,1,3,3,4,4,5,5,6,6,7,7,8,8],"right_children":[2,4,-1,6,8,10,12,14,16,-1,-1,-1,-1,-1,-1,-1,-1],"split_conditions":[2.359581E0,-1.8283425E-2,8.29124E-2,-1.1224763E0,9.8114496E-1,1E0,1E0,3.5849723E-1,1E0,7.5085856E-2,3.7684366E-2,2.7693132E-2,-9.050796E-3,2.0198967E-2,-1.6186554E-2,-3.788388E-2,-6.110523E-3],"split_indices":[6,1,0,1,4,7,11,3,13,0,0,0,0,0,0,0,0],"split_type":[0,0,0,0,0,0,0,0,0,0,0,0,0,0,0,0,0],"sum_hessian":[9.21723E2,7.699297E2,1.5179332E2,3.83974E2,3.859557E2,1.0430232E2,2.796717E2,1.3791034E2,2.4804533E2,3.469925E1,6.960307E1,1.7984558E2,9.98261E1,8.930405E1,4.860629E1,1.4884737E2,9.9197975E1],"tree_param":{"num_deleted":"0","num_feature":"24","num_nodes":"17","size_leaf_vector":"1"}},{"base_weights":[-2.3921847E-1,-6.305586E-2,2.6883972E-1,-5.1929593E-2,3.2292685E-1,-1.4588827E-1,4.9764982E-1,-1.607095E-1,3.5246217E-1,6.276741E-2,-2.0537516E-2,7.6510474E-2,-4.2950243E-2,7.0633143E-3,-5.2178003E-2,3.210299E-2,6.64791E-2],"categories":[],"categories_nodes":[],"categories_segments":[],"categories_sizes":[],"default_left":[0,0,0,0,0,0,0,0,0,0,0,0,0,0,0,0,0],"id":19,"left_children":[1,-1,3,5,7,9,11,13,15,-1,-1,-1,-1,-1,-1,-1,-1],"loss_changes":[1.5533087E2,0E0,5.920149E0,2.6522737E0,4.2177505E0,2.1277182E0,2.193507E0,1.4947007E0,2.484867E0,0E0,0E0,0E0,0E0,0E0,0E0,0E0,0E0],"parents":[2147483647,0,0,2,2,3,3,4,4,5,5,6,6,7,7,8,8],"right_children":[2,-1,4,6,8,10,12,14,16,-1,-1,-1,-1,-1,-1,-1,-1],"split_conditions":[1.3988003E0,-6.305586E-2,-1.1224763E0,-1.2885083E-3,-1.2977343E0,-2.3789716E0,1E0,1E0,1.2001363E0,6.276741E-2,-2.0537516E-2,7.6510474E-2,-4.2950243E-2,7.0633143E-3,-5.2178003E-2,3.210299E-2,6.64791E-2],"split_indices":[5,0,1,2,0,1,21,21,1,0,0,0,0,0,0,0,0],"split_type":[0,0,0,0,0,0,0,0,0,0,0,0,0,0,0,0,0],"sum_hessian":[7.793973E2,4.40135E2,3.3926227E2,4.8957096E1,2.9030518E2,4.24365E1,6.5205975E0,1.6452747E1,2.7385242E2,2.3482745E0,4.0088226E1,5.1963816E0,1.324216E0,1.05180645E1,5.934684E0,2.5065477E2,2.3197655E1],"tree_param":{"num_deleted":"0","num_feature":"24","num_nodes":"17","size_leaf_vector":"1"}},{"base_weights":[3.0876476E-2,2.9143816E-1,-6.35598E-2,3.3962946E-2,4.903586E-1,-2.5419745E-1,1.798946E-1,6.463496E-2,5.3677243E-1,-5.3329654E-2,-1.0234235E-2,-2.1073967E-2,2.7608115E-2,-3.778078E-2,2.5543112E-2,6.6465236E-2,3.776243E-2],"categories":[],"categories_nodes":[],"categories_segments":[],"categories_sizes":[],"default_left":[0,0,0,0,0,0,0,0,0,0,0,0,0,0,0,0,0],"id":20,"left_children":[1,3,-1,5,7,9,11,13,15,-1,-1,-1,-1,-1,-1,-1,-1],"loss_changes":[1.4847115E2,3.1460278E1,0E0,1.1355079E1,6.8147125E0,3.7948422E0,6.7881527E0,3.0691059E0,6.10746E0,0E0,0E0,0E0,0E0,0E0,0E0,0E0,0E0],"parents":[2147483647,0,0,1,1,3,3,4,4,5,5,6,6,7,7,8,8],"right_children":[2,4,-1,6,8,10,12,14,16,-1,-1,-1,-1,-1,-1,-1,-1],"split_conditions":[1.3988003E0,1.9792194E-2,-6.35598E-2,-5.159086E-1,-8.368686E-1,-9.7017384E-1,-1.2367032E0,1E0,1E0,-5.3329654E-2,-1.0234235E-2,-2.1073967E-2,2.7608115E-2,-3.778078E-2,2.5543112E-2,6.6465236E-2,3.776243E-2],"split_indices":[5,1,0,0,0,1,1,15,13,0,0,0,0,0,0,0,0],"split_type":[0,0,0,0,0,0,0,0,0,0,0,0,0,0,0,0,0],"sum_hessian":[8.528977E2,6.135787E2,2.3931905E2,2.6793906E2,3.456396E2,8.982547E1,1.7811359E2,3.421357E1,3.1142603E2,3.0766642E1,5.9058826E1,3.4956554E1,1.4315703E2,1.0013291E1,2.4200277E1,1.7091487E2,1.4051115E2],"tree_param":{"num_deleted":"0","num_feature":"24","num_nodes":"17","size_leaf_vector":"1"}},{"base_weights":[1.6638128E-1,3.6254445E-1,-4.098783E-2,4.2075747E-1,1.7452776E-1,3.9810038E-1,-1.5249062E-1,3.7757218E-1,6.365604E-1,2.437737E-1,-1.9983347E-1,8.4130305E-1,1.553895E-1,-8.449482E-2,-5.979308E-1,2.8117288E-2,4.8675086E-2,6.558121E-2,3.132828E-3,4.2612445E-2,5.6882403E-3,-3.4624323E-2,3.624223E-2,8.866432E-2,9.569332E-3,-9.621563E-3,7.928232E-2,2.4506113E-2,-2.2794807E-2,-6.7053646E-2,-3.5885625E-2],"categories":[],"categories_nodes":[],"categories_segments":[],"categories_sizes":[],"default_left":[0,0,0,0,0,0,0,0,0,0,0,0,0,0,0,0,0,0,0,0,0,0,0,0,0,0,0,0,0,0,0],"id":21,"left_children":[1,3,5,7,9,11,13,15,17,19,21,23,25,27,29,-1,-1,-1,-1,-1,-1,-1,-1,-1,-1,-1,-1,-1,-1,-1,-1],"loss_changes":[3.6868458E1,5.023342E0,2.166699E1,3.0668602E0,2.9469454E0,9.512767E0,1.0630873E1,3.001133E0,6.519413E-1,3.2065253E0,1.607362E0,9.7989845E-1,9.5633135E0,1.4575278E1,5.6720924E-1,0E0,0E0,0E0,0E0,0E0,0E0,0E0,0E0,0E0,0E0,0E0,0E0,0E0,0E0,0E0,0E0],"parents":[2147483647,0,0,1,1,2,2,3,3,4,4,5,5,6,6,7,7,8,8,9,9,10,10,11,11,12,12,13,13,14,14],"right_children":[2,4,6,8,10,12,14,16,18,20,22,24,26,28,30,-1,-1,-1,-1,-1,-1,-1,-1,-1,-1,-1,-1,-1,-1,-1,-1],"split_conditions":[9.8114496E-1,4.766996E-1,-8.352913E-1,1E0,1.2904447E0,-6.7227376E-1,1E0,1E0,2.4385693E0,1E0,1E0,-1.514583E-1,1E0,1.9792194E-2,1E0,2.8117288E-2,4.8675086E-2,6.558121E-2,3.132828E-3,4.2612445E-2,5.6882403E-3,-3.4624323E-2,3.624223E-2,8.866432E-2,9.569332E-3,-9.621563E-3,7.928232E-2,2.4506113E-2,-2.2794807E-2,-6.7053646E-2,-3.5885625E-2],"split_indices":[4,1,3,9,3,0,11,8,0,15,20,2,8,1,22,0,0,0,0,0,0,0,0,0,0,0,0,0,0,0,0],"split_type":[0,0,0,0,0,0,0,0,0,0,0,0,0,0,0,0,0,0,0,0,0,0,0,0,0,0,0,0,0,0,0],"sum_hessian":[9.0497955E2,4.6467075E2,4.403088E2,3.5386917E2,1.1080156E2,8.864849E1,3.5166034E2,2.9715396E2,5.6715202E1,9.3800095E1,1.7001461E1,3.0495623E1,5.8152866E1,3.061211E2,4.553924E1,1.5971178E2,1.374422E2,5.4885777E1,1.8294241E0,4.6828876E1,4.6971222E1,1.3793787E1,3.2076733E0,2.8569191E1,1.9264314E0,4.2303905E1,1.5848962E1,9.2624954E1,2.1349612E2,3.35466E1,1.1992644E1],"tree_param":{"num_deleted":"0","num_feature":"24","num_nodes":"31","size_leaf_vector":"1"}},{"base_weights":[-2.2432996E-1,-6.1906785E-2,2.559857E-1,2.0192851E-1,5.6151307E-1,6.5203466E-2,3.0267188E-1,7.932438E-2,3.0253804E-1,1.3397582E-2,-3.9368503E-2,3.7178423E-2,-7.1622953E-3,-3.3271294E-2,3.837767E-2],"categories":[],"categories_nodes":[],"categories_segments":[],"categories_sizes":[],"default_left":[0,0,0,0,0,0,0,0,0,0,0,0,0,0,0],"id":22,"left_children":[1,-1,3,5,7,9,11,-1,13,-1,-1,-1,-1,-1,-1],"loss_changes":[1.4360912E2,0E0,5.5352535E0,4.0044823E0,2.8118782E0,4.004517E0,4.370923E0,0E0,1.4504614E0,0E0,0E0,0E0,0E0,0E0,0E0],"parents":[2147483647,0,0,2,2,3,3,4,4,5,5,6,6,8,8],"right_children":[2,-1,4,6,8,10,12,-1,14,-1,-1,-1,-1,-1,-1],"split_conditions":[1.3988003E0,-6.1906785E-2,6.134477E-1,1E0,8.9973027E-1,1E0,1E0,7.932438E-2,6.9527304E-1,1.3397582E-2,-3.9368503E-2,3.7178423E-2,-7.1622953E-3,-3.3271294E-2,3.837767E-2],"split_indices":[5,0,3,7,2,13,17,0,3,0,0,0,0,0,0],"split_type":[0,0,0,0,0,0,0,0,0,0,0,0,0,0,0],"sum_hessian":[7.55601E2,4.1458978E2,3.4101123E2,2.9115744E2,4.9853794E1,1.2421918E2,1.6693828E2,2.522208E1,2.4631714E1,1.08644905E2,1.557427E1,1.4092384E2,2.6014425E1,2.4418676E0,2.2189846E1],"tree_param":{"num_deleted":"0","num_feature":"24","num_nodes":"15","size_leaf_vector":"1"}},{"base_weights":[1.0901608E-2,-6.2298395E-2,4.2583224E-1,-6.455397E-2,4.9854094E-1,-2.1255408E-1,5.9072024E-1,3.5268128E-1,6.193161E-1,-4.9809605E-2,-3.2881477E-3,7.1562976E-2,-1.9594941E-2,5.180235E-2,8.443743E-3,5.0429847E-2,7.41594E-2],"categories":[],"categories_nodes":[],"categories_segments":[],"categories_sizes":[],"default_left":[0,0,0,0,0,0,0,0,0,0,0,0,0,0,0,0,0],"id":23,"left_children":[1,-1,3,5,7,9,11,13,15,-1,-1,-1,-1,-1,-1,-1,-1],"loss_changes":[2.2036935E2,0E0,1.8086777E1,6.55235E0,7.552002E0,2.7947984E0,1.3659902E0,8.920769E0,3.00103E0,0E0,0E0,0E0,0E0,0E0,0E0,0E0,0E0],"parents":[2147483647,0,0,2,2,3,3,4,4,5,5,6,6,7,7,8,8],"right_children":[2,-1,4,6,8,10,12,14,16,-1,-1,-1,-1,-1,-1,-1,-1],"split_conditions":[9.8114496E-1,-6.2298395E-2,-8.204091E-1,6.290021E-1,1.7209466E-1,-8.352913E-1,1.8093462E0,1E0,1E0,-4.9809605E-2,-3.2881477E-3,7.1562976E-2,-1.9594941E-2,5.180235E-2,8.443743E-3,5.0429847E-2,7.41594E-2],"split_indices":[4,0,0,1,1,3,1,17,7,0,0,0,0,0,0,0,0],"split_type":[0,0,0,0,0,0,0,0,0,0,0,0,0,0,0,0,0],"sum_hessian":[8.358387E2,3.3047455E2,5.0536417E2,6.526878E1,4.4009537E2,5.3794415E1,1.1474371E1,2.0112167E2,2.3897371E2,2.0091717E1,3.3702698E1,9.980021E0,1.4943502E0,1.2385055E2,7.727112E1,1.2578316E2,1.1319055E2],"tree_param":{"num_deleted":"0","num_feature":"24","num_nodes":"17","size_leaf_vector":"1"}},{"base_weights":[1.4218742E-1,2.9483415E-2,7.654225E-2,1.168758E-1,-2.4723953E-1,3.7899578E-1,4.116574E-2,-1.4693542E-1,-4.8416996E-1,5.8017265E-2,2.7641222E-2,4.8729192E-4,5.2049946E-2,-4.451439E-2,3.387668E-3,-5.2963924E-2,2.3308177E-2],"categories":[],"categories_nodes":[],"categories_segments":[],"categories_sizes":[],"default_left":[0,0,0,0,0,0,0,0,0,0,0,0,0,0,0,0,0],"id":24,"left_children":[1,3,-1,5,7,9,11,13,15,-1,-1,-1,-1,-1,-1,-1,-1],"loss_changes":[6.2960056E1,1.8417671E1,0E0,1.146604E1,4.273674E0,2.5129662E0,7.826257E0,7.018264E0,1.8826456E0,0E0,0E0,0E0,0E0,0E0,0E0,0E0,0E0],"parents":[2147483647,0,0,1,1,3,3,4,4,5,5,6,6,7,7,8,8],"right_children":[2,4,-1,6,8,10,12,14,16,-1,-1,-1,-1,-1,-1,-1,-1],"split_conditions":[2.359581E0,6.7201746E-1,7.654225E-2,-8.450984E-1,1.6694252E0,-8.0945176E-1,9.7481513E-1,1E0,2.7017677E0,5.8017265E-2,2.7641222E-2,4.8729192E-4,5.2049946E-2,-4.451439E-2,3.387668E-3,-5.2963924E-2,2.3308177E-2],"split_indices":[6,3,0,0,3,3,2,17,2,0,0,0,0,0,0,0,0],"split_type":[0,0,0,0,0,0,0,0,0,0,0,0,0,0,0,0,0],"sum_hessian":[8.9566364E2,7.5938586E2,1.3627782E2,5.7756244E2,1.8182341E2,1.2853801E2,4.490244E2,1.2888171E2,5.2941704E1,4.1836582E1,8.670143E1,4.1835852E2,3.0665907E1,4.8096138E1,8.0785576E1,5.0031586E1,2.9101183E0],"tree_param":{"num_deleted":"0","num_feature":"24","num_nodes":"17","size_leaf_vector":"1"}},{"base_weights":[-2.2652917E-1,-6.089703E-2,2.195131E-1,1.5498197E-1,4.5483512E-1,-1.464611E-1,2.0572662E-1,6.693864E-1,3.4678647E-1,-2.6796898E-2,3.8586896E-2,2.2979315E-2,-3.9425183E-2,8.008727E-2,-3.4209706E-2,1.8113477E-2,5.7303786E-2],"categories":[],"categories_nodes":[],"categories_segments":[],"categories_sizes":[],"default_left":[0,0,0,0,0,0,0,0,0,0,0,0,0,0,0,0,0],"id":25,"left_children":[1,-1,3,5,7,9,11,13,15,-1,-1,-1,-1,-1,-1,-1,-1],"loss_changes":[1.27789536E2,0E0,5.1864834E0,4.209125E0,1.482974E0,2.6872966E0,3.4730186E0,3.4266176E0,1.8181171E0,0E0,0E0,0E0,0E0,0E0,0E0,0E0,0E0],"parents":[2147483647,0,0,2,2,3,3,4,4,5,5,6,6,7,7,8,8],"right_children":[2,-1,4,6,8,10,12,14,16,-1,-1,-1,-1,-1,-1,-1,-1],"split_conditions":[1.3988003E0,-6.089703E-2,3.8261417E-1,-1.0755311E0,1E0,5.5285084E-1,1E0,1E0,1E0,-2.6796898E-2,3.8586896E-2,2.2979315E-2,-3.9425183E-2,8.008727E-2,-3.4209706E-2,1.8113477E-2,5.7303786E-2],"split_indices":[5,0,3,0,13,1,12,19,7,0,0,0,0,0,0,0,0],"split_type":[0,0,0,0,0,0,0,0,0,0,0,0,0,0,0,0,0],"sum_hessian":[7.473422E2,4.0216052E2,3.451817E2,2.721971E2,7.2984604E1,3.89475E1,2.332496E2,2.2704748E1,5.0279858E1,3.21139E1,6.8336E0,2.2484746E2,8.402156E0,2.0277079E1,2.4276686E0,3.0066805E1,2.0213053E1],"tree_param":{"num_deleted":"0","num_feature":"24","num_nodes":"17","size_leaf_vector":"1"}},{"base_weights":[1.9453834E-3,-6.123233E-2,3.9081702E-1,-2.5365642E-1,4.5180207E-1,-1.6083393E-1,-5.698496E-1,-3.8518333E-1,4.7284183E-1,-2.3056034E-2,4.772048E-2,-6.560635E-2,-1.2807618E-2,1.8661047E-4,-7.1848035E-2,5.5491E-2,2.9915709E-2],"categories":[],"categories_nodes":[],"categories_segments":[],"categories_sizes":[],"default_left":[0,0,0,0,0,0,0,0,0,0,0,0,0,0,0,0,0],"id":26,"left_children":[1,-1,3,5,7,9,11,13,15,-1,-1,-1,-1,-1,-1,-1,-1],"loss_changes":[1.9051112E2,0E0,1.9309166E1,1.1662481E0,8.045197E0,1.6460052E0,2.714479E-1,1.4848781E0,6.0489044E0,0E0,0E0,0E0,0E0,0E0,0E0,0E0,0E0],"parents":[2147483647,0,0,2,2,3,3,4,4,5,5,6,6,7,7,8,8],"right_children":[2,-1,4,6,8,10,12,14,16,-1,-1,-1,-1,-1,-1,-1,-1],"split_conditions":[9.8114496E-1,-6.123233E-2,-1.1224763E0,1E0,-1.4364922E0,-6.733633E-1,-1.1605519E0,1E0,1E0,-2.3056034E-2,4.772048E-2,-6.560635E-2,-1.2807618E-2,1.8661047E-4,-7.1848035E-2,5.5491E-2,2.9915709E-2],"split_indices":[4,0,1,17,3,3,1,16,13,0,0,0,0,0,0,0,0],"split_type":[0,0,0,0,0,0,0,0,0,0,0,0,0,0,0,0,0],"sum_hessian":[7.955441E2,3.0817334E2,4.873708E2,4.1858814E1,4.4551196E2,3.3525608E1,8.333206E0,1.05000725E1,4.350119E2,3.0798515E1,2.7270942E0,6.566633E0,1.7665726E0,5.3183765E0,5.181696E0,2.9393097E2,1.4108093E2],"tree_param":{"num_deleted":"0","num_feature":"24","num_nodes":"17","size_leaf_vector":"1"}},{"base_weights":[1.553326E-1,2.6450822E-1,-9.7981505E-2,5.11687E-1,1.889421E-1,1.6373236E-1,-2.836924E-1,6.3634056E-1,3.7555903E-1,3.09742E-1,4.1831724E-2,7.192675E-2,-5.3135566E-2,-1.6630687E-1,-4.1673005E-1,6.605668E-2,-1.1801041E-2,4.407145E-2,1.2813776E-3,7.254723E-2,1.233239E-2,5.159558E-2,-3.2661941E-3,3.7016273E-3,-3.983493E-2,-4.5456025E-5,-3.2631177E-2,-3.2202571E-3,-4.881924E-2],"categories":[],"categories_nodes":[],"categories_segments":[],"categories_sizes":[],"default_left":[0,0,0,0,0,0,0,0,0,0,0,0,0,0,0,0,0,0,0,0,0,0,0,0,0,0,0,0,0],"id":27,"left_children":[1,3,5,7,9,11,13,15,17,19,21,-1,23,25,27,-1,-1,-1,-1,-1,-1,-1,-1,-1,-1,-1,-1,-1,-1],"loss_changes":[2.5143467E1,1.1763168E1,1.3376852E1,2.2737541E0,8.6569805E0,1.3829848E1,2.4418E0,1.4642563E0,1.724946E0,2.0659985E1,7.827215E0,0E0,2.606079E0,2.3109019E0,2.03722E0,0E0,0E0,0E0,0E0,0E0,0E0,0E0,0E0,0E0,0E0,0E0,0E0,0E0,0E0],"parents":[2147483647,0,0,1,1,2,2,3,3,4,4,5,5,6,6,7,7,8,8,9,9,10,10,12,12,13,13,14,14],"right_children":[2,4,6,8,10,12,14,16,18,20,22,-1,24,26,28,-1,-1,-1,-1,-1,-1,-1,-1,-1,-1,-1,-1,-1,-1],"split_conditions":[4.38624E-1,-8.368686E-1,9.8114496E-1,1.3988003E0,9.8114496E-1,1.3988003E0,1E0,4.696074E-1,1.3886079E-1,1.3988003E0,-1.2367032E0,7.192675E-2,1.0303262E0,1E0,-5.6311446E-1,6.605668E-2,-1.1801041E-2,4.407145E-2,1.2813776E-3,7.254723E-2,1.233239E-2,5.159558E-2,-3.2661941E-3,3.7016273E-3,-3.983493E-2,-4.5456025E-5,-3.2631177E-2,-3.2202571E-3,-4.881924E-2],"split_indices":[1,0,4,5,4,5,7,3,3,5,1,0,3,15,3,0,0,0,0,0,0,0,0,0,0,0,0,0,0],"split_type":[0,0,0,0,0,0,0,0,0,0,0,0,0,0,0,0,0,0,0,0,0,0,0,0,0,0,0,0,0],"sum_hessian":[9.072224E2,6.3395184E2,2.732706E2,1.4707951E2,4.868723E2,1.13474495E2,1.597961E2,7.485736E1,7.222216E1,2.667361E2,2.2013622E2,3.1209848E1,8.226465E1,8.608726E1,7.370883E1,7.264855E1,2.2088096E0,6.1042843E1,1.1179317E1,8.168317E1,1.8505295E2,2.9086355E1,1.9104985E2,6.593788E1,1.6326765E1,4.2763645E1,4.3323612E1,1.1778927E1,6.192991E1],"tree_param":{"num_deleted":"0","num_feature":"24","num_nodes":"29","size_leaf_vector":"1"}},{"base_weights":[-2.1039149E-1,-5.9919693E-2,2.108353E-1,1.5160102E-1,4.322618E-1,1.921669E-1,-1.5435573E-1,6.167043E-1,2.753619E-1,-3.9150496E-3,2.4632668E-2,-5.8535535E-2,1.1920403E-2,4.8704997E-2,9.214772E-2,-4.4270772E-2,4.0717855E-2],"categories":[],"categories_nodes":[],"categories_segments":[],"categories_sizes":[],"default_left":[0,0,0,0,0,0,0,0,0,0,0,0,0,0,0,0,0],"id":28,"left_children":[1,-1,3,5,7,9,11,13,15,-1,-1,-1,-1,-1,-1,-1,-1],"loss_changes":[1.1664862E2,0E0,4.423299E0,3.3999705E0,1.9048367E0,3.0189629E0,3.8832254E0,8.214569E-1,4.017921E0,0E0,0E0,0E0,0E0,0E0,0E0,0E0,0E0],"parents":[2147483647,0,0,2,2,3,3,4,4,5,5,6,6,7,7,8,8],"right_children":[2,-1,4,6,8,10,12,14,16,-1,-1,-1,-1,-1,-1,-1,-1],"split_conditions":[1.3988003E0,-5.9919693E-2,3.1543127E-1,8.7181635E-2,1E0,-1.1224763E0,1E0,1E0,6.134477E-1,-3.9150496E-3,2.4632668E-2,-5.8535535E-2,1.1920403E-2,4.8704997E-2,9.214772E-2,-4.4270772E-2,4.0717855E-2],"split_indices":[5,0,3,3,17,1,16,7,3,0,0,0,0,0,0,0,0],"split_type":[0,0,0,0,0,0,0,0,0,0,0,0,0,0,0,0,0],"sum_hessian":[7.1047687E2,3.692371E2,3.412398E2,2.7054926E2,7.0690544E1,2.3920563E2,3.1343634E1,3.114625E1,3.9544292E1,4.543387E1,1.9377176E2,1.1727276E1,1.9616358E1,2.367337E1,7.47288E0,5.767483E0,3.377681E1],"tree_param":{"num_deleted":"0","num_feature":"24","num_nodes":"17","size_leaf_vector":"1"}},{"base_weights":[3.6824094E-3,-6.0269844E-2,3.4570295E-1,1.4711535E-1,4.9124047E-1,-3.8446105E-1,1.9528927E-1,1.0738696E-1,5.2460897E-1,-1.0573455E-2,-6.9826856E-2,3.0375798E-3,4.309829E-2,-2.1323191E-2,3.8673725E-2,4.1103955E-2,6.502434E-2],"categories":[],"categories_nodes":[],"categories_segments":[],"categories_sizes":[],"default_left":[0,0,0,0,0,0,0,0,0,0,0,0,0,0,0,0,0],"id":29,"left_children":[1,-1,3,5,7,9,11,13,15,-1,-1,-1,-1,-1,-1,-1,-1],"loss_changes":[1.654432E2,0E0,1.4668694E1,5.6354017E0,3.7081528E0,1.5337329E0,7.7510757E0,2.3003678E0,3.5871353E0,0E0,0E0,0E0,0E0,0E0,0E0,0E0,0E0],"parents":[2147483647,0,0,2,2,3,3,4,4,5,5,6,6,7,7,8,8],"right_children":[2,-1,4,6,8,10,12,14,16,-1,-1,-1,-1,-1,-1,-1,-1],"split_conditions":[9.8114496E-1,-6.0269844E-2,1.9792194E-2,-1.4640545E0,-7.586339E-1,1E0,1E0,1E0,1E0,-1.0573455E-2,-6.9826856E-2,3.0375798E-3,4.309829E-2,-2.1323191E-2,3.8673725E-2,4.1103955E-2,6.502434E-2],"split_indices":[4,0,1,3,3,16,11,11,15,0,0,0,0,0,0,0,0],"split_type":[0,0,0,0,0,0,0,0,0,0,0,0,0,0,0,0,0],"sum_hessian":[7.9571686E2,2.866833E2,5.0903357E2,2.1613109E2,2.9290247E2,1.73792E1,1.9875188E2,2.3763063E1,2.691394E2,9.912115E0,7.467085E0,1.1759806E2,8.115382E1,1.1174469E1,1.25885935E1,1.4360071E2,1.255387E2],"tree_param":{"num_deleted":"0","num_feature":"24","num_nodes":"17","size_leaf_vector":"1"}},{"base_weights":[1.5147018E-1,5.4709934E-2,7.0170894E-2,1.3187645E-1,-2.3772778E-1,3.8651395E-1,6.376128E-2,-3.9098233E-2,-3.1818965E-1,4.2028453E-2,-1.766985E-2,-1.5186376E-3,3.9031263E-2,-3.1413253E-2,1.1242129E-2,-4.315198E-2,-1.49448905E-2],"categories":[],"categories_nodes":[],"categories_segments":[],"categories_sizes":[],"default_left":[0,0,0,0,0,0,0,0,0,0,0,0,0,0,0,0,0],"id":30,"left_children":[1,3,-1,5,7,9,11,13,15,-1,-1,-1,-1,-1,-1,-1,-1],"loss_changes":[4.7363422E1,1.7142464E1,0E0,1.0392388E1,2.523387E0,2.4813156E0,1.2252573E1,1.9890985E0,2.0923061E0,0E0,0E0,0E0,0E0,0E0,0E0,0E0,0E0],"parents":[2147483647,0,0,1,1,3,3,4,4,5,5,6,6,7,7,8,8],"right_children":[2,4,-1,6,8,10,12,14,16,-1,-1,-1,-1,-1,-1,-1,-1],"split_conditions":[2.359581E0,7.8130454E-1,7.0170894E-2,-8.533281E-1,9.8114496E-1,5.9092647E-1,1E0,-6.3935477E-1,1E0,4.2028453E-2,-1.766985E-2,-1.5186376E-3,3.9031263E-2,-3.1413253E-2,1.1242129E-2,-4.315198E-2,-1.49448905E-2],"split_indices":[6,1,0,0,4,1,13,0,9,0,0,0,0,0,0,0,0],"split_type":[0,0,0,0,0,0,0,0,0,0,0,0,0,0,0,0,0],"sum_hessian":[8.8932135E2,7.5725616E2,1.3206514E2,5.9958954E2,1.5766666E2,1.2555357E2,4.7403595E2,4.5883595E1,1.1178307E2,1.18690575E2,6.862997E0,3.825125E2,9.152344E1,1.5917444E1,2.9966148E1,6.593939E1,4.584368E1],"tree_param":{"num_deleted":"0","num_feature":"24","num_nodes":"17","size_leaf_vector":"1"}},{"base_weights":[-2.0207134E-1,-5.9058096E-2,1.974747E-1,1.4597028E-1,4.8457673E-1,2.2247335E-2,2.34635E-1,1.3242751E-2,5.385685E-1,-6.0528656E-3,5.5444885E-2,-1.2421471E-2,3.0390952E-2,-3.244501E-2,2.9984552E-2,6.1466552E-2,5.573847E-3],"categories":[],"categories_nodes":[],"categories_segments":[],"categories_sizes":[],"default_left":[0,0,0,0,0,0,0,0,0,0,0,0,0,0,0,0,0],"id":31,"left_children":[1,-1,3,5,7,9,11,13,15,-1,-1,-1,-1,-1,-1,-1,-1],"loss_changes":[1.0886359E2,0E0,5.0474463E0,3.2298927E0,1.3216972E0,5.505862E0,4.305811E0,7.1592325E-1,1.6861877E0,0E0,0E0,0E0,0E0,0E0,0E0,0E0,0E0],"parents":[2147483647,0,0,2,2,3,3,4,4,5,5,6,6,7,7,8,8],"right_children":[2,-1,4,6,8,10,12,14,16,-1,-1,-1,-1,-1,-1,-1,-1],"split_conditions":[1.3988003E0,-5.9058096E-2,6.134477E-1,1E0,-3.990396E-1,6.017342E-2,-1.2747788E0,1E0,1.7986231E0,-6.0528656E-3,5.5444885E-2,-1.2421471E-2,3.0390952E-2,-3.244501E-2,2.9984552E-2,6.1466552E-2,5.573847E-3],"split_indices":[5,0,3,7,1,0,1,7,3,0,0,0,0,0,0,0,0],"split_type":[0,0,0,0,0,0,0,0,0,0,0,0,0,0,0,0,0],"sum_hessian":[6.9956506E2,3.544387E2,3.4512637E2,2.939092E2,5.1217167E1,1.2321944E2,1.7068977E2,5.391968E0,4.58252E1,1.0740107E2,1.5818363E1,2.7490881E1,1.4319888E2,2.4147303E0,2.9772375E0,3.93503E1,6.4749E0],"tree_param":{"num_deleted":"0","num_feature":"24","num_nodes":"17","size_leaf_vector":"1"}},{"base_weights":[1.1944002E-2,-5.9382636E-2,3.412585E-1,9.172674E-2,4.516733E-1,-3.6532336E-1,1.707146E-1,5.594791E-1,2.5597677E-1,-4.606116E-2,2.029152E-2,2.7928589E-2,-1.31610185E-2,-1.7439643E-2,5.8351573E-2,-9.570667E-3,4.2060304E-2],"categories":[],"categories_nodes":[],"categories_segments":[],"categories_sizes":[],"default_left":[0,0,0,0,0,0,0,0,0,0,0,0,0,0,0,0,0],"id":32,"left_children":[1,-1,3,5,7,9,11,13,15,-1,-1,-1,-1,-1,-1,-1,-1],"loss_changes":[1.53311E2,0E0,1.367511E1,5.620881E0,7.132637E0,1.3391933E0,4.3682766E0,4.0094986E0,7.23932E0,0E0,0E0,0E0,0E0,0E0,0E0,0E0,0E0],"parents":[2147483647,0,0,2,2,3,3,4,4,5,5,6,6,7,7,8,8],"right_children":[2,-1,4,6,8,10,12,14,16,-1,-1,-1,-1,-1,-1,-1,-1],"split_conditions":[9.8114496E-1,-5.9382636E-2,-3.2288837E-1,-8.368686E-1,1E0,-3.8830955E-2,1E0,-1.2236665E0,6.290021E-1,-4.606116E-2,2.029152E-2,2.7928589E-2,-1.31610185E-2,-1.7439643E-2,5.8351573E-2,-9.570667E-3,4.2060304E-2],"split_indices":[4,0,1,0,13,2,9,0,1,0,0,0,0,0,0,0,0],"split_type":[0,0,0,0,0,0,0,0,0,0,0,0,0,0,0,0,0],"sum_hessian":[7.665029E2,2.6966107E2,4.9684183E2,1.5296948E2,3.4387234E2,2.2006645E1,1.3096283E2,2.2052826E2,1.2334408E2,1.9008503E1,2.998141E0,9.641453E1,3.45483E1,6.7955065E0,2.1373276E2,3.9461967E1,8.388212E1],"tree_param":{"num_deleted":"0","num_feature":"24","num_nodes":"17","size_leaf_vector":"1"}},{"base_weights":[1.4489369E-1,5.6758862E-2,6.765946E-2,2.4014576E-1,-5.1605437E-2,4.0608105E-1,1.0954152E-1,-1.4607526E-1,1.0403938E-1,5.8841366E-2,2.8555263E-2,5.7764775E-3,5.9133507E-2,2.9558295E-3,-3.159168E-2,4.3179892E-2,-1.1848849E-2],"categories":[],"categories_nodes":[],"categories_segments":[],"categories_sizes":[],"default_left":[0,0,0,0,0,0,0,0,0,0,0,0,0,0,0,0,0],"id":33,"left_children":[1,3,-1,5,7,9,11,13,15,-1,-1,-1,-1,-1,-1,-1,-1],"loss_changes":[4.1318184E1,1.5078492E1,0E0,6.061964E0,7.0342617E0,2.5510845E0,3.9331875E0,8.883066E0,1.3244348E1,0E0,0E0,0E0,0E0,0E0,0E0,0E0,0E0],"parents":[2147483647,0,0,1,1,3,3,4,4,5,5,6,6,7,7,8,8],"right_children":[2,4,-1,6,8,10,12,14,16,-1,-1,-1,-1,-1,-1,-1,-1],"split_conditions":[2.359581E0,-3.990396E-1,6.765946E-2,-5.2413833E-1,1E0,-1.1224763E0,1E0,-1.8900074E-1,6.290021E-1,5.8841366E-2,2.8555263E-2,5.7764775E-3,5.9133507E-2,2.9558295E-3,-3.159168E-2,4.3179892E-2,-1.1848849E-2],"split_indices":[6,1,0,0,13,1,13,2,1,0,0,0,0,0,0,0,0],"split_type":[0,0,0,0,0,0,0,0,0,0,0,0,0,0,0,0,0],"sum_hessian":[8.815305E2,7.5713446E2,1.24396E2,2.8076855E2,4.763659E2,1.2272931E2,1.5803926E2,2.9647787E2,1.7988806E2,4.7297215E1,7.543209E1,1.4371463E2,1.4324637E1,1.461597E2,1.5031816E2,7.236371E1,1.0752435E2],"tree_param":{"num_deleted":"0","num_feature":"24","num_nodes":"17","size_leaf_vector":"1"}},{"base_weights":[-1.7338742E-1,-5.82962E-2,2.2285658E-1,-5.0442584E-2,2.6943326E-1,-2.7979055E-1,9.415801E-2,8.0777034E-2,3.268835E-1,-4.1129156E-3,-4.8387986E-2,5.778105E-2,-1.1298035E-2,-4.3124272E-3,4.7078412E-2,4.028303E-2,2.3978233E-2],"categories":[],"categories_nodes":[],"categories_segments":[],"categories_sizes":[],"default_left":[0,0,0,0,0,0,0,0,0,0,0,0,0,0,0,0,0],"id":34,"left_children":[1,-1,3,5,7,9,11,13,15,-1,-1,-1,-1,-1,-1,-1,-1],"loss_changes":[1.0907795E2,0E0,4.3661594E0,1.7054465E0,3.1416569E0,9.45977E-1,3.2511606E0,3.381703E0,1.3834553E0,0E0,0E0,0E0,0E0,0E0,0E0,0E0,0E0],"parents":[2147483647,0,0,2,2,3,3,4,4,5,5,6,6,7,7,8,8],"right_children":[2,-1,4,6,8,10,12,14,16,-1,-1,-1,-1,-1,-1,-1,-1],"split_conditions":[1.3988003E0,-5.82962E-2,-1.1224763E0,-6.228953E-1,-8.533281E-1,-8.6155784E-1,-1.7316862E0,4.766996E-1,-1.2125763E-1,-4.1129156E-3,-4.8387986E-2,5.778105E-2,-1.1298035E-2,-4.3124272E-3,4.7078412E-2,4.028303E-2,2.3978233E-2],"split_indices":[5,0,1,0,0,0,1,1,3,0,0,0,0,0,0,0,0],"split_type":[0,0,0,0,0,0,0,0,0,0,0,0,0,0,0,0,0],"sum_hessian":[6.703109E2,3.293793E2,3.4093158E2,4.9630486E1,2.9130112E2,1.8829884E1,3.0800604E1,6.856197E1,2.2273914E2,9.23363E0,9.596253E0,8.699181E0,2.2101423E1,5.270694E1,1.5855034E1,1.1705211E2,1.0568702E2],"tree_param":{"num_deleted":"0","num_feature":"24","num_nodes":"17","size_leaf_vector":"1"}},{"base_weights":[-2.6850104E-3,-5.8614045E-2,3.126035E-1,-8.433781E-2,3.9659303E-1,-3.6080924E-1,2.5450513E-1,3.437802E-1,7.1498895E-1,-6.1326798E-2,-1.5392131E-2,5.207611E-2,-3.581373E-2,-2.1783137E-3,4.2767573E-2,-1.6305929E-2,7.6373056E-2],"categories":[],"categories_nodes":[],"categories_segments":[],"categories_sizes":[],"default_left":[0,0,0,0,0,0,0,0,0,0,0,0,0,0,0,0,0],"id":35,"left_children":[1,-1,3,5,7,9,11,13,15,-1,-1,-1,-1,-1,-1,-1,-1],"loss_changes":[1.3929488E2,0E0,1.6422264E1,8.211509E0,6.5797005E0,2.4201798E0,6.6347303E0,1.0746094E1,2.5564365E0,0E0,0E0,0E0,0E0,0E0,0E0,0E0,0E0],"parents":[2147483647,0,0,2,2,3,3,4,4,5,5,6,6,7,7,8,8],"right_children":[2,-1,4,6,8,10,12,14,16,-1,-1,-1,-1,-1,-1,-1,-1],"split_conditions":[9.8114496E-1,-5.8614045E-2,-8.352913E-1,-3.7600297E-1,1E0,-1.1798191E0,1E0,-3.2288837E-1,-7.216522E-1,-6.1326798E-2,-1.5392131E-2,5.207611E-2,-3.581373E-2,-2.1783137E-3,4.2767573E-2,-1.6305929E-2,7.6373056E-2],"split_indices":[4,0,3,0,14,3,8,1,0,0,0,0,0,0,0,0,0],"split_type":[0,0,0,0,0,0,0,0,0,0,0,0,0,0,0,0,0],"sum_hessian":[7.552191E2,2.6463718E2,4.9058197E2,8.5674286E1,4.0490768E2,4.7143646E1,3.8530643E1,3.490842E2,5.5823463E1,2.034862E1,2.6795025E1,2.6962605E1,1.156804E1,6.5297905E1,2.8378632E2,2.8125138E0,5.301095E1],"tree_param":{"num_deleted":"0","num_feature":"24","num_nodes":"17","size_leaf_vector":"1"}},{"base_weights":[1.2765324E-1,4.7315933E-2,6.5475844E-2,1.2628971E-1,-1.9045053E-1,4.8237494E-1,7.628228E-2,-5.3076275E-2,-3.420974E-1,6.640672E-2,1.2716681E-2,1.4791012E-2,-1.2760087E-2,1.2408116E-2,-2.5899589E-2,-2.5955824E-2,-5.7593077E-2],"categories":[],"categories_nodes":[],"categories_segments":[],"categories_sizes":[],"default_left":[0,0,0,0,0,0,0,0,0,0,0,0,0,0,0,0,0],"id":36,"left_children":[1,3,-1,5,7,9,11,13,15,-1,-1,-1,-1,-1,-1,-1,-1],"loss_changes":[3.623809E1,1.3999859E1,0E0,9.922906E0,3.8561487E0,4.3485804E0,7.1984777E0,3.635038E0,1.5530396E0,0E0,0E0,0E0,0E0,0E0,0E0,0E0,0E0],"parents":[2147483647,0,0,1,1,3,3,4,4,5,5,6,6,7,7,8,8],"right_children":[2,4,-1,6,8,10,12,14,16,-1,-1,-1,-1,-1,-1,-1,-1],"split_conditions":[2.359581E0,6.290021E-1,6.5475844E-2,-1.265951E0,1E0,1E0,1E0,9.200774E-1,1.0303262E0,6.640672E-2,1.2716681E-2,1.4791012E-2,-1.2760087E-2,1.2408116E-2,-2.5899589E-2,-2.5955824E-2,-5.7593077E-2],"split_indices":[6,1,0,3,7,18,11,3,3,0,0,0,0,0,0,0,0],"split_type":[0,0,0,0,0,0,0,0,0,0,0,0,0,0,0,0,0],"sum_hessian":[8.5548914E2,7.4329205E2,1.1219707E2,5.5831683E2,1.8497523E2,6.768805E1,4.9062878E2,9.776323E1,8.7212006E1,4.42065E1,2.3481548E1,3.6327737E2,1.27351395E2,5.276538E1,4.4997852E1,6.601859E1,2.1193417E1],"tree_param":{"num_deleted":"0","num_feature":"24","num_nodes":"17","size_leaf_vector":"1"}},{"base_weights":[-1.9150718E-1,-5.76016E-2,1.792181E-1,-2.957968E-1,2.0604597E-1,1.2147448E-1,-4.3972746E-1,2.4289936E-1,-8.921609E-2,4.5692474E-2,-2.3568537E-2,-2.0360705E-2,-6.72103E-2,-1.5846923E-3,2.8337782E-2,-1.8588407E-2,5.4197628E-2],"categories":[],"categories_nodes":[],"categories_segments":[],"categories_sizes":[],"default_left":[0,0,0,0,0,0,0,0,0,0,0,0,0,0,0,0,0],"id":37,"left_children":[1,-1,3,5,7,9,11,13,15,-1,-1,-1,-1,-1,-1,-1,-1],"loss_changes":[9.220604E1,0E0,4.2627754E0,1.1366819E0,3.424098E0,7.5579447E-1,6.108775E-1,2.918829E0,2.2624466E0,0E0,0E0,0E0,0E0,0E0,0E0,0E0,0E0],"parents":[2147483647,0,0,2,2,3,3,4,4,5,5,6,6,7,7,8,8],"right_children":[2,-1,4,6,8,10,12,14,16,-1,-1,-1,-1,-1,-1,-1,-1],"split_conditions":[1.3988003E0,-5.76016E-2,-1.2977343E0,-1.0900195E0,9.7481513E-1,-1.7058589E-1,1E0,-1.1651044E0,1.123985E0,4.5692474E-2,-2.3568537E-2,-2.0360705E-2,-6.72103E-2,-1.5846923E-3,2.8337782E-2,-1.8588407E-2,5.4197628E-2],"split_indices":[5,0,0,2,2,1,21,2,1,0,0,0,0,0,0,0,0],"split_type":[0,0,0,0,0,0,0,0,0,0,0,0,0,0,0,0,0],"sum_hessian":[6.451217E2,3.1640207E2,3.2871964E2,1.7036964E1,3.1168268E2,4.40946E0,1.2627503E1,2.7725427E2,3.4428394E1,2.1297944E0,2.2796655E0,7.193884E0,5.4336195E0,3.758866E1,2.3966562E2,3.0467724E1,3.96067E0],"tree_param":{"num_deleted":"0","num_feature":"24","num_nodes":"17","size_leaf_vector":"1"}},{"base_weights":[-1.7718198E-2,-5.789388E-2,2.6991445E-1,-1.2816088E-1,3.254685E-1,-7.008192E-2,-6.1028755E-1,1.3719466E-1,3.812611E-1,-4.4815227E-2,3.0570317E-3,-7.158997E-2,-1.483454E-2,1.7555868E-2,-8.36707E-2,5.062104E-2,2.5171509E-2],"categories":[],"categories_nodes":[],"categories_segments":[],"categories_sizes":[],"default_left":[0,0,0,0,0,0,0,0,0,0,0,0,0,0,0,0,0],"id":38,"left_children":[1,-1,3,5,7,9,11,13,15,-1,-1,-1,-1,-1,-1,-1,-1],"loss_changes":[1.1651849E2,0E0,1.0596344E1,1.6139743E0,4.3500595E0,2.066124E0,1.9780993E-1,3.7847939E0,5.0965805E0,0E0,0E0,0E0,0E0,0E0,0E0,0E0,0E0],"parents":[2147483647,0,0,2,2,3,3,4,4,5,5,6,6,7,7,8,8],"right_children":[2,-1,4,6,8,10,12,14,16,-1,-1,-1,-1,-1,-1,-1,-1],"split_conditions":[9.8114496E-1,-5.789388E-2,-8.368686E-1,1E0,-5.2688277E-1,1E0,5.618482E-1,1E0,1E0,-4.4815227E-2,3.0570317E-3,-7.158997E-2,-1.483454E-2,1.7555868E-2,-8.36707E-2,5.062104E-2,2.5171509E-2],"split_indices":[4,0,0,13,2,10,2,9,9,0,0,0,0,0,0,0,0],"split_type":[0,0,0,0,0,0,0,0,0,0,0,0,0,0,0,0,0],"sum_hessian":[7.198423E2,2.435743E2,4.7626797E2,5.816646E1,4.1810153E2,5.2935047E1,5.231413E0,9.636707E1,3.2173447E2,1.0403792E1,4.2531254E1,3.8104775E0,1.4209353E0,9.350351E1,2.8635602E0,1.6229283E2,1.5944162E2],"tree_param":{"num_deleted":"0","num_feature":"24","num_nodes":"17","size_leaf_vector":"1"}},{"base_weights":[1.3086374E-1,5.827045E-2,6.355998E-2,1.1153596E-1,-3.961887E-1,3.9899856E-1,5.768452E-2,-2.9237506E-1,-6.4415686E-2,5.7086196E-2,2.8380487E-2,-2.5156091E-3,3.1689543E-2,-5.117879E-2,-1.4425866E-2],"categories":[],"categories_nodes":[],"categories_segments":[],"categories_sizes":[],"default_left":[0,0,0,0,0,0,0,0,0,0,0,0,0,0,0],"id":39,"left_children":[1,3,-1,5,7,9,11,13,-1,-1,-1,-1,-1,-1,-1],"loss_changes":[3.0165571E1,1.751561E1,0E0,9.989814E0,1.7665157E0,1.8550224E0,1.173081E1,1.7252855E0,0E0,0E0,0E0,0E0,0E0,0E0,0E0],"parents":[2147483647,0,0,1,1,3,3,4,4,5,5,6,6,7,7],"right_children":[2,4,-1,6,8,10,12,14,-1,-1,-1,-1,-1,-1,-1],"split_conditions":[2.359581E0,1.3894964E0,6.355998E-2,-1.0844007E0,1E0,1E0,1E0,1E0,-6.4415686E-2,5.7086196E-2,2.8380487E-2,-2.5156091E-3,3.1689543E-2,-5.117879E-2,-1.4425866E-2],"split_indices":[6,3,0,1,7,7,13,13,0,0,0,0,0,0,0],"split_type":[0,0,0,0,0,0,0,0,0,0,0,0,0,0,0],"sum_hessian":[8.232968E2,7.207508E2,1.0254601E2,6.458121E2,7.493871E1,1.00882935E2,5.4492914E2,5.435971E1,2.0579004E1,3.8896137E1,6.1986797E1,4.1363837E2,1.3129077E2,2.091777E1,3.3441936E1],"tree_param":{"num_deleted":"0","num_feature":"24","num_nodes":"15","size_leaf_vector":"1"}},{"base_weights":[-1.8782043E-1,-5.6991983E-2,1.4291619E-1,3.660461E-3,2.54984E-1,-1.0825867E-1,2.3132543E-1,-6.930548E-2,3.1806412E-1,-1.6943429E-2,4.807425E-2,-7.024847E-2,3.0485436E-2,4.6543387E-4,-6.103611E-2,4.662434E-2,1.822554E-2],"categories":[],"categories_nodes":[],"categories_segments":[],"categories_sizes":[],"default_left":[0,0,0,0,0,0,0,0,0,0,0,0,0,0,0,0,0],"id":40,"left_children":[1,-1,3,5,7,9,11,13,15,-1,-1,-1,-1,-1,-1,-1,-1],"loss_changes":[7.914734E1,0E0,5.245271E0,3.870333E0,3.8320236E0,3.7516232E0,3.6511354E0,1.2493719E0,3.056385E0,0E0,0E0,0E0,0E0,0E0,0E0,0E0,0E0],"parents":[2147483647,0,0,2,2,3,3,4,4,5,5,6,6,7,7,8,8],"right_children":[2,-1,4,6,8,10,12,14,16,-1,-1,-1,-1,-1,-1,-1,-1],"split_conditions":[1.3988003E0,-5.6991983E-2,1E0,-2.4432708E-1,-1.0426122E0,6.9527304E-1,-1.0704315E0,1E0,-4.8298964E-1,-1.6943429E-2,4.807425E-2,-7.024847E-2,3.0485436E-2,4.6543387E-4,-6.103611E-2,4.662434E-2,1.822554E-2],"split_indices":[5,0,7,0,0,3,3,13,0,0,0,0,0,0,0,0,0],"split_type":[0,0,0,0,0,0,0,0,0,0,0,0,0,0,0,0,0],"sum_hessian":[6.246486E2,2.8948453E2,3.351641E2,1.4991367E2,1.8525043E2,1.0085718E2,4.905648E1,3.0150526E1,1.550999E2,9.2012764E1,8.844414E0,2.9564168E0,4.6100063E1,2.7396894E1,2.753632E0,7.3008316E1,8.209158E1],"tree_param":{"num_deleted":"0","num_feature":"24","num_nodes":"17","size_leaf_vector":"1"}},{"base_weights":[7.695217E-3,1.7873913E-1,-5.7576537E-2,2.7309772E-1,-5.5572797E-2,-1.9932017E-1,3.150129E-1,-4.8618466E-2,2.0734577E-2,2.5332546E-2,5.639714E-2],"categories":[],"categories_nodes":[],"categories_segments":[],"categories_sizes":[],"default_left":[0,0,0,0,0,0,0,0,0,0,0],"id":41,"left_children":[1,3,-1,5,-1,7,9,-1,-1,-1,-1],"loss_changes":[7.084845E1,3.819589E1,0E0,9.708599E0,0E0,4.8033395E0,6.7345085E0,0E0,0E0,0E0,0E0],"parents":[2147483647,0,0,1,1,3,3,5,5,6,6],"right_children":[2,4,-1,6,-1,8,10,-1,-1,-1,-1],"split_conditions":[1.3988003E0,2.359581E0,-5.7576537E-2,-1.1944615E0,-5.5572797E-2,-3.6777323E-1,1E0,-4.8618466E-2,2.0734577E-2,2.5332546E-2,5.639714E-2],"split_indices":[5,6,0,3,0,0,11,0,0,0,0],"split_type":[0,0,0,0,0,0,0,0,0,0,0],"sum_hessian":[7.078917E2,5.4795123E2,1.5994054E2,4.8612573E2,6.1825474E1,3.93104E1,4.4681534E2,2.2935808E1,1.637459E1,3.5970456E2,8.711079E1],"tree_param":{"num_deleted":"0","num_feature":"24","num_nodes":"11","size_leaf_vector":"1"}},{"base_weights":[1.20654605E-1,5.197437E-2,6.1978508E-2,9.120126E-2,-3.242768E-1,3.324574E-2,2.794783E-1,-4.0164435E-1,1.897369E-1,2.2983244E-2,-8.508107E-3,1.5080172E-2,7.98016E-2,-5.5068757E-2,-3.032568E-2,7.433681E-2,-3.7979856E-2],"categories":[],"categories_nodes":[],"categories_segments":[],"categories_sizes":[],"default_left":[0,0,0,0,0,0,0,0,0,0,0,0,0,0,0,0,0],"id":42,"left_children":[1,3,-1,5,7,9,11,13,15,-1,-1,-1,-1,-1,-1,-1,-1],"loss_changes":[2.8689981E1,1.0916047E1,0E0,7.2878795E0,2.8543935E0,1.19406E1,1.0373119E1,7.281103E-1,3.3782573E0,0E0,0E0,0E0,0E0,0E0,0E0,0E0,0E0],"parents":[2147483647,0,0,1,1,3,3,4,4,5,5,6,6,7,7,8,8],"right_children":[2,4,-1,6,8,10,12,14,16,-1,-1,-1,-1,-1,-1,-1,-1],"split_conditions":[2.359581E0,1.4110295E0,6.1978508E-2,1E0,2.2888007E0,-7.310717E-1,1E0,1E0,2.1681292E0,2.2983244E-2,-8.508107E-3,1.5080172E-2,7.98016E-2,-5.5068757E-2,-3.032568E-2,7.433681E-2,-3.7979856E-2],"split_indices":[6,3,0,17,2,3,13,8,3,0,0,0,0,0,0,0,0],"split_type":[0,0,0,0,0,0,0,0,0,0,0,0,0,0,0,0,0],"sum_hessian":[8.3686053E2,7.3660767E2,1.00252914E2,6.6774774E2,6.88599E1,5.1148026E2,1.562675E2,6.0041306E1,8.818596E0,1.9183147E2,3.1964877E2,1.262332E2,3.0034304E1,2.2046646E1,3.799466E1,4.316964E0,4.5016317E0],"tree_param":{"num_deleted":"0","num_feature":"24","num_nodes":"17","size_leaf_vector":"1"}},{"base_weights":[-1.4909057E-1,8.737196E-2,-5.6688186E-2,1.8181366E-1,-5.4301657E-2,1.424619E-1,4.833389E-1,1.679006E-2,-3.0278498E-2,6.0262002E-2,8.562987E-3],"categories":[],"categories_nodes":[],"categories_segments":[],"categories_sizes":[],"default_left":[0,0,0,0,0,0,0,0,0,0,0],"id":43,"left_children":[1,3,-1,5,-1,7,9,-1,-1,-1,-1],"loss_changes":[6.1645275E1,2.3853907E1,0E0,4.0576506E0,0E0,3.551207E0,1.833148E0,0E0,0E0,0E0,0E0],"parents":[2147483647,0,0,1,1,3,3,5,5,6,6],"right_children":[2,4,-1,6,-1,8,10,-1,-1,-1,-1],"split_conditions":[9.8114496E-1,2.359581E0,-5.6688186E-2,6.9527304E-1,-5.4301657E-2,9.7481513E-1,1E0,1.679006E-2,-3.0278498E-2,6.0262002E-2,8.562987E-3],"split_indices":[4,6,0,3,0,2,19,0,0,0,0],"split_type":[0,0,0,0,0,0,0,0,0,0,0],"sum_hessian":[6.224893E2,3.9801224E2,2.244771E2,3.4677216E2,5.1240105E1,3.0804233E2,3.8729828E1,2.919831E2,1.6059235E1,2.9397642E1,9.332184E0],"tree_param":{"num_deleted":"0","num_feature":"24","num_nodes":"11","size_leaf_vector":"1"}},{"base_weights":[-2.3014078E-4,1.6338491E-1,-5.701452E-2,2.5262603E-1,-5.4873813E-2,-9.077252E-2,3.0148628E-1,-3.3407625E-2,3.491267E-2,4.001307E-2,1.5666505E-2],"categories":[],"categories_nodes":[],"categories_segments":[],"categories_sizes":[],"default_left":[0,0,0,0,0,0,0,0,0,0,0],"id":44,"left_children":[1,3,-1,5,-1,7,9,-1,-1,-1,-1],"loss_changes":[6.3264275E1,3.3638126E1,0E0,7.898403E0,0E0,6.4529643E0,5.807514E0,0E0,0E0,0E0,0E0],"parents":[2147483647,0,0,1,1,3,3,5,5,6,6],"right_children":[2,4,-1,6,-1,8,10,-1,-1,-1,-1],"split_conditions":[1.3988003E0,2.359581E0,-5.701452E-2,-8.368686E-1,-5.4873813E-2,3.2439712E-1,1E0,-3.3407625E-2,3.491267E-2,4.001307E-2,1.5666505E-2],"split_indices":[5,6,0,0,0,1,17,0,0,0,0],"split_type":[0,0,0,0,0,0,0,0,0,0,0],"sum_hessian":[6.7646234E2,5.2613055E2,1.5033179E2,4.6811328E2,5.8017307E1,5.820192E1,4.0991135E2,3.7629814E1,2.0572104E1,2.4277985E2,1.671315E2],"tree_param":{"num_deleted":"0","num_feature":"24","num_nodes":"11","size_leaf_vector":"1"}},{"base_weights":[1.2085222E-1,1.8662903E-1,-8.888872E-2,1.357855E-1,4.3405882E-1,8.9784354E-2,-2.1637033E-1,2.3786132E-1,-5.0316434E-2,5.233745E-1,4.9761172E-2,5.8198582E-2,-5.2456163E-2,-3.3967424E-2,-4.2401403E-1,4.2569216E-2,1.2598275E-2,-2.2733694E-2,1.4968948E-2,3.9164167E-2,8.804864E-2,4.3952446E-2,-5.7770282E-2,-6.356119E-2,5.946017E-4,-2.833568E-2,2.16262E-2,1.7786598E-2,-4.5076407E-2],"categories":[],"categories_nodes":[],"categories_segments":[],"categories_sizes":[],"default_left":[0,0,0,0,0,0,0,0,0,0,0,0,0,0,0,0,0,0,0,0,0,0,0,0,0,0,0,0,0],"id":45,"left_children":[1,3,5,7,9,11,13,15,17,19,21,-1,23,25,27,-1,-1,-1,-1,-1,-1,-1,-1,-1,-1,-1,-1,-1,-1],"loss_changes":[1.13578825E1,7.817898E0,4.505154E0,9.906393E0,3.6216984E0,5.821161E0,4.3497677E0,7.0184402E0,6.5952454E0,3.7069054E0,5.425598E0,0E0,2.2203877E0,3.9570985E0,9.463358E-1,0E0,0E0,0E0,0E0,0E0,0E0,0E0,0E0,0E0,0E0,0E0,0E0,0E0,0E0],"parents":[2147483647,0,0,1,1,2,2,3,3,4,4,5,5,6,6,7,7,8,8,9,9,10,10,12,12,13,13,14,14],"right_children":[2,4,6,8,10,12,14,16,18,20,22,-1,24,26,28,-1,-1,-1,-1,-1,-1,-1,-1,-1,-1,-1,-1,-1,-1],"split_conditions":[6.290021E-1,1E0,9.8114496E-1,-1.8900074E-1,1.3894964E0,1.3988003E0,1E0,1E0,1E0,1E0,1E0,5.8198582E-2,6.6707766E-1,1E0,-9.050582E-1,4.2569216E-2,1.2598275E-2,-2.2733694E-2,1.4968948E-2,3.9164167E-2,8.804864E-2,4.3952446E-2,-5.7770282E-2,-6.356119E-2,5.946017E-4,-2.833568E-2,2.16262E-2,1.7786598E-2,-4.5076407E-2],"split_indices":[1,13,4,2,3,5,7,7,17,17,7,0,1,13,3,0,0,0,0,0,0,0,0,0,0,0,0,0,0],"split_type":[0,0,0,0,0,0,0,0,0,0,0,0,0,0,0,0,0,0,0,0,0,0,0,0,0,0,0,0,0],"sum_hessian":[8.210659E2,6.2512946E2,1.9593651E2,5.19855E2,1.0527447E2,8.171033E1,1.1422617E2,3.3553687E2,1.8431812E2,8.512779E1,2.0146679E1,1.7626156E1,6.408417E1,6.1428444E1,5.2797733E1,1.2420554E2,2.1133131E2,9.770505E1,8.6613075E1,6.3719414E1,2.1408377E1,1.2611985E1,7.534694E0,4.933998E0,5.915017E1,3.069956E1,3.0728882E1,2.0063083E0,5.0791424E1],"tree_param":{"num_deleted":"0","num_feature":"24","num_nodes":"29","size_leaf_vector":"1"}},{"base_weights":[-1.539116E-1,-5.5895608E-2,1.453441E-1,3.508842E-2,2.3586105E-1,-5.3330448E-2,6.538392E-2,-5.6532323E-2,2.5959E-1,-1.9846004E-3,3.4330737E-2,2.8745204E-2,-2.3942111E-2],"categories":[],"categories_nodes":[],"categories_segments":[],"categories_sizes":[],"default_left":[0,0,0,0,0,0,0,0,0,0,0,0,0],"id":46,"left_children":[1,-1,3,5,7,-1,9,-1,11,-1,-1,-1,-1],"loss_changes":[7.335478E1,0E0,3.4692311E0,2.7602363E0,3.7812815E0,0E0,3.5872025E0,0E0,2.6599216E0,0E0,0E0,0E0,0E0],"parents":[2147483647,0,0,2,2,3,3,4,4,6,6,8,8],"right_children":[2,-1,4,6,8,-1,10,-1,12,-1,-1,-1,-1],"split_conditions":[1.3988003E0,-5.5895608E-2,1E0,-1.0497599E0,-1.6397636E0,-5.3330448E-2,1E0,-5.6532323E-2,1E0,-1.9846004E-3,3.4330737E-2,2.8745204E-2,-2.3942111E-2],"split_indices":[5,0,7,3,3,0,11,0,12,0,0,0,0],"split_type":[0,0,0,0,0,0,0,0,0,0,0,0,0],"sum_hessian":[6.0350793E2,2.5606055E2,3.474474E2,1.5726987E2,1.9017754E2,7.1181602E0,1.501517E2,4.8139873E0,1.8536354E2,1.1562265E2,3.452905E1,1.759627E2,9.400835E0],"tree_param":{"num_deleted":"0","num_feature":"24","num_nodes":"13","size_leaf_vector":"1"}},{"base_weights":[-1.3200543E-2,1.4628485E-1,-5.649106E-2,2.26269E-1,-5.4226857E-2,-3.343497E-1,2.7668107E-1,-4.58931E-2,7.271921E-3,1.48554165E-2,3.9329708E-2],"categories":[],"categories_nodes":[],"categories_segments":[],"categories_sizes":[],"default_left":[0,0,0,0,0,0,0,0,0,0,0],"id":47,"left_children":[1,3,-1,5,-1,7,9,-1,-1,-1,-1],"loss_changes":[5.8600426E1,2.8579617E1,0E0,1.3195856E1,0E0,1.9962049E0,6.3057404E0,0E0,0E0,0E0,0E0],"parents":[2147483647,0,0,1,1,3,3,5,5,6,6],"right_children":[2,4,-1,6,-1,8,10,-1,-1,-1,-1],"split_conditions":[1.3988003E0,2.359581E0,-5.649106E-2,-1.1605519E0,-5.4226857E-2,-6.423558E-1,2.1017028E-1,-4.58931E-2,7.271921E-3,1.48554165E-2,3.9329708E-2],"split_indices":[5,6,0,1,0,3,1,0,0,0,0],"split_type":[0,0,0,0,0,0,0,0,0,0,0],"sum_hessian":[6.640528E2,5.157092E2,1.483436E2,4.6263922E2,5.3069992E1,3.770458E1,4.2493463E2,2.8771736E1,8.932841E0,2.0355789E2,2.2137672E2],"tree_param":{"num_deleted":"0","num_feature":"24","num_nodes":"11","size_leaf_vector":"1"}},{"base_weights":[1.1465263E-1,5.693416E-2,5.959448E-2,2.2459875E-1,-5.5807333E-2,5.710226E-1,1.7819682E-1,2.9355545E-2,-2.3810183E-1,7.022711E-2,-4.8458055E-2,3.407783E-2,-2.5153202E-3,-8.622146E-3,3.471295E-2,-9.916102E-3,-4.9974237E-2],"categories":[],"categories_nodes":[],"categories_segments":[],"categories_sizes":[],"default_left":[0,0,0,0,0,0,0,0,0,0,0,0,0,0,0,0,0],"id":48,"left_children":[1,3,-1,5,7,9,11,13,15,-1,-1,-1,-1,-1,-1,-1,-1],"loss_changes":[2.2909191E1,1.3973522E1,0E0,4.674884E0,6.875393E0,5.1405153E0,8.720289E0,1.11375475E1,5.0755267E0,0E0,0E0,0E0,0E0,0E0,0E0,0E0,0E0],"parents":[2147483647,0,0,1,1,3,3,4,4,5,5,6,6,7,7,8,8],"right_children":[2,4,-1,6,8,10,12,14,16,-1,-1,-1,-1,-1,-1,-1,-1],"split_conditions":[2.359581E0,-3.2288837E-1,5.959448E-2,-1.4795582E0,6.7201746E-1,6.017342E-2,1E0,1E0,1E0,7.022711E-2,-4.8458055E-2,3.407783E-2,-2.5153202E-3,-8.622146E-3,3.471295E-2,-9.916102E-3,-4.9974237E-2],"split_indices":[6,1,0,3,3,0,11,13,7,0,0,0,0,0,0,0,0],"split_type":[0,0,0,0,0,0,0,0,0,0,0,0,0,0,0,0,0],"sum_hessian":[8.249028E2,7.3756885E2,8.733392E1,2.9615176E2,4.414171E2,3.3646965E1,2.625048E2,3.014344E2,1.3998273E2,3.0223808E1,3.4231575E0,1.4549971E2,1.1700509E2,2.2157455E2,7.9859825E1,9.23307E1,4.7652027E1],"tree_param":{"num_deleted":"0","num_feature":"24","num_nodes":"17","size_leaf_vector":"1"}},{"base_weights":[-1.4224881E-1,-1.0045791E-1,-2.9573497E-1,-2.4901953E-1,-6.746976E-2,5.1918145E-2,-3.1438082E-1,-3.7472356E-2,-3.2394445E-1,-1.3551772E-1,6.0933E-3,-3.0305362E-1,6.0884446E-2,-5.4623604E-1,-2.6730078E-1,-1.44263925E-2,3.7589263E-2,-5.30653E-2,-2.415258E-2,-4.8219215E-2,-9.419478E-3,5.0210417E-3,-1.8578077E-2,-4.259361E-2,-4.2907535E-3,-1.8060938E-2,-6.214885E-2,-3.2996666E-2,-1.4524152E-2],"categories":[],"categories_nodes":[],"categories_segments":[],"categories_sizes":[],"default_left":[0,0,0,0,0,0,0,0,0,0,0,0,0,0,0,0,0,0,0,0,0,0,0,0,0,0,0,0,0],"id":49,"left_children":[1,3,5,7,9,11,13,15,17,19,21,23,-1,25,27,-1,-1,-1,-1,-1,-1,-1,-1,-1,-1,-1,-1,-1,-1],"loss_changes":[3.7224102E0,2.2438645E0,8.2447815E-1,1.3104892E0,1.8972383E0,1.608785E0,1.1471491E0,1.0675727E0,9.1942024E-1,2.7744484E0,1.5584176E0,1.4372432E-1,0E0,4.1154814E-1,7.2025967E-1,0E0,0E0,0E0,0E0,0E0,0E0,0E0,0E0,0E0,0E0,0E0,0E0,0E0,0E0],"parents":[2147483647,0,0,1,1,2,2,3,3,4,4,5,5,6,6,7,7,8,8,9,9,10,10,11,11,13,13,14,14],"right_children":[2,4,6,8,10,12,14,16,18,20,22,24,-1,26,28,-1,-1,-1,-1,-1,-1,-1,-1,-1,-1,-1,-1,-1,-1],"split_conditions":[1E0,-1.0082495E0,-1.1605519E0,-1.7316862E0,1E0,-1.3128544E0,-5.5134207E-1,-6.3804924E-1,-1.4651569E0,-8.2722235E-1,-2.4432708E-1,1E0,6.0884446E-2,1.342411E-1,1.7555006E0,-1.44263925E-2,3.7589263E-2,-5.30653E-2,-2.415258E-2,-4.8219215E-2,-9.419478E-3,5.0210417E-3,-1.8578077E-2,-4.259361E-2,-4.2907535E-3,-1.8060938E-2,-6.214885E-2,-3.2996666E-2,-1.4524152E-2],"split_indices":[9,1,1,1,7,1,1,3,1,2,0,22,0,0,0,0,0,0,0,0,0,0,0,0,0,0,0,0,0],"split_type":[0,0,0,0,0,0,0,0,0,0,0,0,0,0,0,0,0,0,0,0,0,0,0,0,0,0,0,0,0],"sum_hessian":[5.839593E2,4.6028763E2,1.23671646E2,8.244574E1,3.778419E2,6.204462E0,1.17467186E2,2.1955498E1,6.0490242E1,1.9584106E2,1.8200084E2,4.0676703E0,2.1367917E0,1.8037172E1,9.9430016E1,1.7965235E1,3.9902623E0,1.5693059E1,4.479718E1,1.9721424E1,1.7611963E2,1.4857718E2,3.3423656E1,2.3298488E0,1.7378217E0,3.659062E0,1.437811E1,6.4574036E1,3.4855976E1],"tree_param":{"num_deleted":"0","num_feature":"24","num_nodes":"29","size_leaf_vector":"1"}},{"base_weights":[-5.2430364E-3,-5.570496E-2,2.3020923E-1,-2.1076632E-1,2.804412E-1,-3.9727435E-1,-8.593516E-2,1.8039489E-1,4.0559772E-1,8.531268E-3,-5.1100727E-2,-2.3267921E-2,1.3147068E-2,2.6535818E-2,-2.5801644E-2,2.9449988E-2,5.265471E-2],"categories":[],"categories_nodes":[],"categories_segments":[],"categories_sizes":[],"default_left":[0,0,0,0,0,0,0,0,0,0,0,0,0,0,0,0,0],"id":50,"left_children":[1,-1,3,5,7,9,11,13,15,-1,-1,-1,-1,-1,-1,-1,-1],"loss_changes":[8.415332E1,0E0,1.0115932E1,1.0600927E0,5.0357246E0,1.0627306E0,9.6952313E-1,8.581827E0,2.269785E0,0E0,0E0,0E0,0E0,0E0,0E0,0E0,0E0],"parents":[2147483647,0,0,2,2,3,3,4,4,5,5,6,6,7,7,8,8],"right_children":[2,-1,4,6,8,10,12,14,16,-1,-1,-1,-1,-1,-1,-1,-1],"split_conditions":[9.8114496E-1,-5.570496E-2,-1.1224763E0,-9.023073E-1,4.0054837E-1,-1.5780714E0,1E0,1E0,1E0,8.531268E-3,-5.1100727E-2,-2.3267921E-2,1.3147068E-2,2.6535818E-2,-2.5801644E-2,2.9449988E-2,5.265471E-2],"split_indices":[4,0,1,2,1,2,7,13,7,0,0,0,0,0,0,0,0],"split_type":[0,0,0,0,0,0,0,0,0,0,0,0,0,0,0,0,0],"sum_hessian":[6.457244E2,1.9271387E2,4.530106E2,4.5999058E1,4.070115E2,1.7568213E1,2.8430847E1,2.2755351E2,1.7945801E2,3.3983505E0,1.4169862E1,1.6931925E1,1.1498921E1,1.909437E2,3.6609806E1,9.53288E1,8.412922E1],"tree_param":{"num_deleted":"0","num_feature":"24","num_nodes":"17","size_leaf_vector":"1"}},{"base_weights":[9.444077E-2,3.7549466E-2,5.8614638E-2,9.778727E-2,-1.7510752E-1,3.3599532E-1,4.6751693E-2,-5.6720674E-2,-3.9675882E-1,4.0554702E-2,9.786627E-3,1.3177182E-2,-1.7598359E-2,-3.462606E-2,8.967392E-3,1.1162741E-2,-4.3278478E-2],"categories":[],"categories_nodes":[],"categories_segments":[],"categories_sizes":[],"default_left":[0,0,0,0,0,0,0,0,0,0,0,0,0,0,0,0,0],"id":51,"left_children":[1,3,-1,5,7,9,11,13,15,-1,-1,-1,-1,-1,-1,-1,-1],"loss_changes":[2.24067E1,9.236446E0,0E0,6.810204E0,4.155572E0,1.5984526E0,8.801772E0,4.4797597E0,1.0605402E0,0E0,0E0,0E0,0E0,0E0,0E0,0E0,0E0],"parents":[2147483647,0,0,1,1,3,3,4,4,5,5,6,6,7,7,8,8],"right_children":[2,4,-1,6,8,10,12,14,16,-1,-1,-1,-1,-1,-1,-1,-1],"split_conditions":[2.359581E0,6.7201746E-1,5.8614638E-2,-1.1224763E0,1E0,-6.3804924E-1,1E0,2.5768727E-1,7.0474756E-1,4.0554702E-2,9.786627E-3,1.3177182E-2,-1.7598359E-2,-3.462606E-2,8.967392E-3,1.1162741E-2,-4.3278478E-2],"split_indices":[6,3,0,1,7,3,11,0,3,0,0,0,0,0,0,0,0],"split_type":[0,0,0,0,0,0,0,0,0,0,0,0,0,0,0,0,0],"sum_hessian":[8.0077637E2,7.18698E2,8.207841E1,5.6047614E2,1.5822185E2,9.7908E1,4.6256815E2,1.0395436E2,5.4267483E1,7.523161E1,2.2676382E1,3.350752E2,1.27492935E2,3.4451252E1,6.9503105E1,3.4522316E0,5.0815254E1],"tree_param":{"num_deleted":"0","num_feature":"24","num_nodes":"17","size_leaf_vector":"1"}},{"base_weights":[-1.3091184E-1,-5.5222E-2,1.5713084E-1,7.284098E-2,2.6795062E-1,-9.048973E-2,1.6456145E-1,3.899413E-1,1.3517156E-1,-3.378121E-2,2.5145793E-2,-1.2373351E-2,2.3672242E-2,4.5732386E-2,1.5185173E-3,-1.832876E-3,2.2040319E-2],"categories":[],"categories_nodes":[],"categories_segments":[],"categories_sizes":[],"default_left":[0,0,0,0,0,0,0,0,0,0,0,0,0,0,0,0,0],"id":52,"left_children":[1,-1,3,5,7,9,11,13,15,-1,-1,-1,-1,-1,-1,-1,-1],"loss_changes":[7.033488E1,0E0,3.1992636E0,2.9675167E0,2.3525486E0,6.1337805E0,2.662426E0,1.933918E0,9.543021E-1,0E0,0E0,0E0,0E0,0E0,0E0,0E0,0E0],"parents":[2147483647,0,0,2,2,3,3,4,4,5,5,6,6,7,7,8,8],"right_children":[2,-1,4,6,8,10,12,14,16,-1,-1,-1,-1,-1,-1,-1,-1],"split_conditions":[1.3988003E0,-5.5222E-2,-1.8900074E-1,1E0,1E0,-4.2538145E-1,-1.0590717E0,7.6793134E-1,3.2439712E-1,-3.378121E-2,2.5145793E-2,-1.2373351E-2,2.3672242E-2,4.5732386E-2,1.5185173E-3,-1.832876E-3,2.2040319E-2],"split_indices":[5,0,2,7,13,0,0,0,1,0,0,0,0,0,0,0,0],"split_type":[0,0,0,0,0,0,0,0,0,0,0,0,0,0,0,0,0],"sum_hessian":[5.778659E2,2.3427881E2,3.4358707E2,1.9609438E2,1.4749269E2,7.052349E1,1.2557089E2,7.585977E1,7.163291E1,4.0931114E1,2.9592375E1,2.499541E1,1.00575485E2,6.41119E1,1.1747877E1,2.5854486E1,4.5778423E1],"tree_param":{"num_deleted":"0","num_feature":"24","num_nodes":"17","size_leaf_vector":"1"}},{"base_weights":[-6.7250985E-3,-5.5352487E-2,2.0841424E-1,5.3691138E-2,3.6917865E-1,1.7558612E-1,-1.656712E-1,-3.6416743E-2,4.058296E-1,-9.145091E-3,4.2149436E-2,-3.1909924E-2,4.0234815E-2,-3.95247E-2,3.2176014E-2,3.1209245E-2,5.1002998E-2],"categories":[],"categories_nodes":[],"categories_segments":[],"categories_sizes":[],"default_left":[0,0,0,0,0,0,0,0,0,0,0,0,0,0,0,0,0],"id":53,"left_children":[1,-1,3,5,7,9,11,13,15,-1,-1,-1,-1,-1,-1,-1,-1],"loss_changes":[7.59584E1,0E0,1.1506802E1,6.374496E0,3.390625E0,1.0087391E1,7.5604877E0,2.6639838E0,1.875927E0,0E0,0E0,0E0,0E0,0E0,0E0,0E0,0E0],"parents":[2147483647,0,0,2,2,3,3,4,4,5,5,6,6,7,7,8,8],"right_children":[2,-1,4,6,8,10,12,14,16,-1,-1,-1,-1,-1,-1,-1,-1],"split_conditions":[9.8114496E-1,-5.5352487E-2,2.1017028E-1,1E0,-8.9447683E-1,-7.009255E-1,1.3671021E0,6.6707766E-1,1E0,-9.145091E-3,4.2149436E-2,-3.1909924E-2,4.0234815E-2,-3.95247E-2,3.2176014E-2,3.1209245E-2,5.1002998E-2],"split_indices":[4,0,1,17,0,3,3,1,7,0,0,0,0,0,0,0,0],"split_type":[0,0,0,0,0,0,0,0,0,0,0,0,0,0,0,0,0],"sum_hessian":[6.4371466E2,1.8131364E2,4.62401E2,2.3630756E2,2.2609346E2,1.5202826E2,8.4279305E1,1.873791E1,2.0735555E2,7.3184135E1,7.8844124E1,6.670091E1,1.7578394E1,9.308715E0,9.4291935E0,1.1126148E2,9.609406E1],"tree_param":{"num_deleted":"0","num_feature":"24","num_nodes":"17","size_leaf_vector":"1"}},{"base_weights":[1.2244545E-1,7.42127E-2,5.7580527E-2,1.4113018E-1,-1.5459944E-1,9.137174E-2,3.6715516E-1,-4.1436857E-1,-5.154276E-2,1.4283015E-2,-2.7373869E-2,2.9063875E-2,9.62932E-2,-2.4604242E-2,-6.242469E-2,9.879106E-3,-3.1063661E-2],"categories":[],"categories_nodes":[],"categories_segments":[],"categories_sizes":[],"default_left":[0,0,0,0,0,0,0,0,0,0,0,0,0,0,0,0,0],"id":54,"left_children":[1,3,-1,5,7,9,11,13,15,-1,-1,-1,-1,-1,-1,-1,-1],"loss_changes":[1.747425E1,1.112565E1,0E0,6.2828007E0,4.3844337E0,8.71203E0,4.3243704E0,1.4928093E0,4.6646495E0,0E0,0E0,0E0,0E0,0E0,0E0,0E0,0E0],"parents":[2147483647,0,0,1,1,3,3,4,4,5,5,6,6,7,7,8,8],"right_children":[2,4,-1,6,8,10,12,14,16,-1,-1,-1,-1,-1,-1,-1,-1],"split_conditions":[2.359581E0,6.7201746E-1,5.7580527E-2,1E0,1E0,1.8361957E-1,8.9973027E-1,1.0303262E0,1.6694252E0,1.4283015E-2,-2.7373869E-2,2.9063875E-2,9.62932E-2,-2.4604242E-2,-6.242469E-2,9.879106E-3,-3.1063661E-2],"split_indices":[6,3,0,17,17,0,2,3,3,0,0,0,0,0,0,0,0],"split_type":[0,0,0,0,0,0,0,0,0,0,0,0,0,0,0,0,0],"sum_hessian":[8.0007697E2,7.24194E2,7.588298E1,5.6062036E2,1.635736E2,4.6062088E2,9.9999504E1,4.5603264E1,1.1797032E2,4.0425436E2,5.636652E1,8.993665E1,1.006285E1,2.6512266E1,1.9091E1,7.504546E1,4.2924862E1],"tree_param":{"num_deleted":"0","num_feature":"24","num_nodes":"17","size_leaf_vector":"1"}},{"base_weights":[-1.2797455E-1,-5.4807153E-2,1.507528E-1,6.121222E-2,2.2397467E-1,-1.0649542E-1,1.8399893E-1,-3.914705E-2,2.703412E-1,-4.7238514E-2,1.4832439E-2,1.1474988E-2,4.4036496E-2,-1.8091315E-2,2.7120173E-2,3.793432E-2,1.1425993E-2],"categories":[],"categories_nodes":[],"categories_segments":[],"categories_sizes":[],"default_left":[0,0,0,0,0,0,0,0,0,0,0,0,0,0,0,0,0],"id":55,"left_children":[1,-1,3,5,7,9,11,13,15,-1,-1,-1,-1,-1,-1,-1,-1],"loss_changes":[6.3844284E1,0E0,2.1376452E0,3.087712E0,2.2083025E0,6.0008335E0,1.4830399E0,1.2748873E0,2.564416E0,0E0,0E0,0E0,0E0,0E0,0E0,0E0,0E0],"parents":[2147483647,0,0,2,2,3,3,4,4,5,5,6,6,7,7,8,8],"right_children":[2,-1,4,6,8,10,12,14,16,-1,-1,-1,-1,-1,-1,-1,-1],"split_conditions":[1.3988003E0,-5.4807153E-2,1E0,-1.8900074E-1,-1.0426122E0,-6.064358E-1,1E0,1E0,-3.7600297E-1,-4.7238514E-2,1.4832439E-2,1.1474988E-2,4.4036496E-2,-1.8091315E-2,2.7120173E-2,3.793432E-2,1.1425993E-2],"split_indices":[5,0,7,2,0,0,21,18,0,0,0,0,0,0,0,0,0],"split_type":[0,0,0,0,0,0,0,0,0,0,0,0,0,0,0,0,0],"sum_hessian":[5.4354095E2,2.1640689E2,3.2713406E2,1.4799362E2,1.7914044E2,6.2610313E1,8.538331E1,2.686156E1,1.5227888E2,2.5352892E1,3.725742E1,6.836445E1,1.701886E1,1.8725082E1,8.136479E0,8.881972E1,6.3459164E1],"tree_param":{"num_deleted":"0","num_feature":"24","num_nodes":"17","size_leaf_vector":"1"}},{"base_weights":[5.0629536E-3,-5.4898616E-2,2.0744565E-1,9.978554E-2,3.7930176E-1,1.6279492E-1,-3.1848338E-1,2.7045986E-1,5.439325E-1,-1.32080065E-2,2.534973E-2,-5.1336404E-2,1.1107674E-2,4.540008E-2,-1.4178556E-3,2.8227909E-2,5.9745293E-2],"categories":[],"categories_nodes":[],"categories_segments":[],"categories_sizes":[],"default_left":[0,0,0,0,0,0,0,0,0,0,0,0,0,0,0,0,0],"id":56,"left_children":[1,-1,3,5,7,9,11,13,15,-1,-1,-1,-1,-1,-1,-1,-1],"loss_changes":[6.9135124E1,0E0,8.317371E0,7.405013E0,2.9631767E0,6.5364723E0,3.1431818E0,5.569398E0,7.849369E-1,0E0,0E0,0E0,0E0,0E0,0E0,0E0,0E0],"parents":[2147483647,0,0,2,2,3,3,4,4,5,5,6,6,7,7,8,8],"right_children":[2,-1,4,6,8,10,12,14,16,-1,-1,-1,-1,-1,-1,-1,-1],"split_conditions":[9.8114496E-1,-5.4898616E-2,4.9458566E-1,1E0,1E0,-8.9402264E-1,8.1938016E-1,1E0,6.9527304E-1,-1.32080065E-2,2.534973E-2,-5.1336404E-2,1.1107674E-2,4.540008E-2,-1.4178556E-3,2.8227909E-2,5.9745293E-2],"split_indices":[4,0,3,13,7,1,1,13,3,0,0,0,0,0,0,0,0],"split_type":[0,0,0,0,0,0,0,0,0,0,0,0,0,0,0,0,0],"sum_hessian":[6.145468E2,1.6396327E2,4.5058356E2,2.7800598E2,1.7257758E2,2.4214E2,3.5865967E1,1.05482834E2,6.709475E1,5.685318E1,1.8528682E2,2.4538412E1,1.1327555E1,6.376852E1,4.171431E1,1.24589615E1,5.4635788E1],"tree_param":{"num_deleted":"0","num_feature":"24","num_nodes":"17","size_leaf_vector":"1"}},{"base_weights":[9.385397E-2,4.86379E-2,5.661092E-2,1.6577996E-1,-4.9765065E-2,4.9403715E-1,7.05008E-2,9.506314E-3,-4.325722E-1,6.623986E-2,1.0279844E-2,-4.748305E-3,3.4498345E-2,3.7213147E-2,-3.8083463E-3,-3.473695E-2,-5.921165E-2],"categories":[],"categories_nodes":[],"categories_segments":[],"categories_sizes":[],"default_left":[0,0,0,0,0,0,0,0,0,0,0,0,0,0,0,0,0],"id":57,"left_children":[1,3,-1,5,7,9,11,13,15,-1,-1,-1,-1,-1,-1,-1,-1],"loss_changes":[1.6768839E1,8.29566E0,0E0,1.0237892E1,8.88695E0,4.787985E0,8.298086E0,5.8813686E0,5.081301E-1,0E0,0E0,0E0,0E0,0E0,0E0,0E0,0E0],"parents":[2147483647,0,0,1,1,3,3,4,4,5,5,6,6,7,7,8,8],"right_children":[2,4,-1,6,8,10,12,14,16,-1,-1,-1,-1,-1,-1,-1,-1],"split_conditions":[2.359581E0,1E0,5.661092E-2,-4.8934034E-1,7.0474756E-1,-2.3609734E-1,1E0,-1.4795582E0,1.4721831E0,6.623986E-2,1.0279844E-2,-4.748305E-3,3.4498345E-2,3.7213147E-2,-3.8083463E-3,-3.473695E-2,-5.921165E-2],"split_indices":[6,7,0,2,3,0,13,3,3,0,0,0,0,0,0,0,0],"split_type":[0,0,0,0,0,0,0,0,0,0,0,0,0,0,0,0,0],"sum_hessian":[7.855855E2,7.179485E2,6.763698E1,3.274531E2,3.9049542E2,7.272268E1,2.5473042E2,3.389844E2,5.151099E1,5.035875E1,2.236393E1,1.7873138E2,7.599904E1,3.8535046E1,3.0044937E2,3.564987E1,1.5861117E1],"tree_param":{"num_deleted":"0","num_feature":"24","num_nodes":"17","size_leaf_vector":"1"}},{"base_weights":[-1.245617E-1,-5.444279E-2,1.3240558E-1,8.0005005E-2,2.970787E-1,1.19506575E-1,-3.0460715E-1,4.681599E-1,1.7264582E-1,-1.7823469E-3,2.0438585E-2,-4.183049E-2,4.38337E-3,6.1594434E-2,-9.677709E-3,2.6627412E-2,-4.3570254E-2],"categories":[],"categories_nodes":[],"categories_segments":[],"categories_sizes":[],"default_left":[0,0,0,0,0,0,0,0,0,0,0,0,0,0,0,0,0],"id":58,"left_children":[1,-1,3,5,7,9,11,13,15,-1,-1,-1,-1,-1,-1,-1,-1],"loss_changes":[5.8090706E1,0E0,2.8616757E0,3.9111495E0,1.6297121E0,2.707978E0,9.7056293E-1,2.835587E0,2.8558416E0,0E0,0E0,0E0,0E0,0E0,0E0,0E0,0E0],"parents":[2147483647,0,0,2,2,3,3,4,4,5,5,6,6,7,7,8,8],"right_children":[2,-1,4,6,8,10,12,14,16,-1,-1,-1,-1,-1,-1,-1,-1],"split_conditions":[1.3988003E0,-5.444279E-2,2.1637954E-1,7.684581E-2,1E0,1E0,1E0,1.0148237E0,1E0,-1.7823469E-3,2.0438585E-2,-4.183049E-2,4.38337E-3,6.1594434E-2,-9.677709E-3,2.6627412E-2,-4.3570254E-2],"split_indices":[5,0,3,3,13,7,20,0,20,0,0,0,0,0,0,0,0],"split_type":[0,0,0,0,0,0,0,0,0,0,0,0,0,0,0,0,0],"sum_hessian":[5.3674786E2,2.0335753E2,3.3339035E2,2.5403865E2,7.93517E1,2.310028E2,2.3035849E1,3.2249676E1,4.710202E1,8.853997E1,1.4246283E2,1.7217272E1,5.818577E0,2.5491064E1,6.758611E0,4.1306946E1,5.7950764E0],"tree_param":{"num_deleted":"0","num_feature":"24","num_nodes":"17","size_leaf_vector":"1"}},{"base_weights":[-6.978572E-3,-5.4531492E-2,1.8166395E-1,-1.7119992E-1,2.3482995E-1,-3.232612E-1,4.434221E-1,-1.3215362E-1,2.7521837E-1,-3.9518867E-2,9.946614E-3,7.1390616E-3,6.423764E-2,-3.0567843E-2,8.445308E-3,3.7991922E-2,5.925643E-3],"categories":[],"categories_nodes":[],"categories_segments":[],"categories_sizes":[],"default_left":[0,0,0,0,0,0,0,0,0,0,0,0,0,0,0,0,0],"id":59,"left_children":[1,-1,3,5,7,9,11,13,15,-1,-1,-1,-1,-1,-1,-1,-1],"loss_changes":[6.1675644E1,0E0,8.477828E0,5.701438E0,5.8359985E0,1.5064883E0,8.583901E-1,1.509337E0,7.955208E0,0E0,0E0,0E0,0E0,0E0,0E0,0E0,0E0],"parents":[2147483647,0,0,2,2,3,3,4,4,5,5,6,6,7,7,8,8],"right_children":[2,-1,4,6,8,10,12,14,16,-1,-1,-1,-1,-1,-1,-1,-1],"split_conditions":[9.8114496E-1,-5.4531492E-2,-8.204091E-1,6.6707766E-1,-1.1224763E0,1E0,-1.1002204E0,-1.0442145E-1,1E0,-3.9518867E-2,9.946614E-3,7.1390616E-3,6.423764E-2,-3.0567843E-2,8.445308E-3,3.7991922E-2,5.925643E-3],"split_indices":[4,0,0,1,1,19,0,0,13,0,0,0,0,0,0,0,0],"split_type":[0,0,0,0,0,0,0,0,0,0,0,0,0,0,0,0,0],"sum_hessian":[6.0534845E2,1.5659023E2,4.4875824E2,5.8470192E1,3.9028802E2,4.725345E1,1.1216745E1,3.846939E1,3.5181863E2,4.0438026E1,6.8154225E0,4.3818326E0,6.8349133E0,2.1130453E1,1.7338936E1,2.3643369E2,1.15384964E2],"tree_param":{"num_deleted":"0","num_feature":"24","num_nodes":"17","size_leaf_vector":"1"}},{"base_weights":[9.111564E-2,4.732237E-2,5.583302E-2,9.952474E-2,-1.6153145E-1,4.2148683E-2,3.624678E-1,-1.1927324E-1,-5.882904E-2,2.4276512E-2,-2.9849075E-3,4.475955E-2,8.531018E-3,-2.844325E-2,4.8382973E-4],"categories":[],"categories_nodes":[],"categories_segments":[],"categories_sizes":[],"default_left":[0,0,0,0,0,0,0,0,0,0,0,0,0,0,0],"id":60,"left_children":[1,3,-1,5,7,9,11,13,-1,-1,-1,-1,-1,-1,-1],"loss_changes":[1.6091507E1,7.8804717E0,0E0,8.700356E0,2.5379615E0,6.873279E0,2.4001837E0,2.7244806E0,0E0,0E0,0E0,0E0,0E0,0E0,0E0],"parents":[2147483647,0,0,1,1,3,3,4,4,5,5,6,6,7,7],"right_children":[2,4,-1,6,8,10,12,14,-1,-1,-1,-1,-1,-1,-1],"split_conditions":[2.359581E0,7.432289E-1,5.583302E-2,1E0,2.1520267E0,-9.7017384E-1,1.3502396E0,1E0,-5.882904E-2,2.4276512E-2,-2.9849075E-3,4.475955E-2,8.531018E-3,-2.844325E-2,4.8382973E-4],"split_indices":[6,1,0,13,1,1,2,13,0,0,0,0,0,0,0],"split_type":[0,0,0,0,0,0,0,0,0,0,0,0,0,0,0],"sum_hessian":[7.867448E2,7.203278E2,6.641698E1,5.767055E2,1.436223E2,4.743576E2,1.0234793E2,1.318462E2,1.1776092E1,1.2465205E2,3.4970557E2,7.782836E1,2.4519571E1,5.6014347E1,7.583186E1],"tree_param":{"num_deleted":"0","num_feature":"24","num_nodes":"15","size_leaf_vector":"1"}},{"base_weights":[-1.3016453E-1,-5.413285E-2,1.1133497E-1,-1.05639085E-1,1.6624014E-1,-2.2655593E-1,6.4736396E-2,8.016826E-2,2.6382798E-1,2.7823368E-2,-2.879836E-2,3.8410924E-2,-1.2938658E-2,1.2000325E-3,3.456417E-2,1.2607909E-2,3.4655593E-2],"categories":[],"categories_nodes":[],"categories_segments":[],"categories_sizes":[],"default_left":[0,0,0,0,0,0,0,0,0,0,0,0,0,0,0,0,0],"id":61,"left_children":[1,-1,3,5,7,9,11,13,15,-1,-1,-1,-1,-1,-1,-1,-1],"loss_changes":[5.276439E1,0E0,4.010898E0,1.4218512E0,2.229116E0,1.3258419E0,1.8558006E0,2.5979328E0,1.3820858E0,0E0,0E0,0E0,0E0,0E0,0E0,0E0,0E0],"parents":[2147483647,0,0,2,2,3,3,4,4,5,5,6,6,7,7,8,8],"right_children":[2,-1,4,6,8,10,12,14,16,-1,-1,-1,-1,-1,-1,-1,-1],"split_conditions":[1.3988003E0,-5.413285E-2,-1.0006646E0,-9.398497E-1,1E0,-1.7657835E0,-7.521375E-1,1E0,-5.183258E-1,2.7823368E-2,-2.879836E-2,3.8410924E-2,-1.2938658E-2,1.2000325E-3,3.456417E-2,1.2607909E-2,3.4655593E-2],"split_indices":[5,0,3,2,7,2,2,11,3,0,0,0,0,0,0,0,0],"split_type":[0,0,0,0,0,0,0,0,0,0,0,0,0,0,0,0,0],"sum_hessian":[5.2977844E2,1.9557002E2,3.3420844E2,6.730575E1,2.6690268E2,3.917394E1,2.8131804E1,1.4278697E2,1.24115715E2,3.866992E0,3.530695E1,1.02650175E1,1.7866787E1,1.1444511E2,2.8341867E1,4.7518124E1,7.6597595E1],"tree_param":{"num_deleted":"0","num_feature":"24","num_nodes":"17","size_leaf_vector":"1"}},{"base_weights":[-2.9439408E-2,-5.4190516E-2,1.4737877E-1,1.080835E-1,4.856028E-1,1.9431914E-1,-1.142563E-1,5.396703E-1,1.1909872E-1,-1.2211628E-3,3.2389987E-2,-3.3553146E-2,2.705281E-2,5.8493E-2,3.5405766E-2,-7.370743E-2,4.537454E-2],"categories":[],"categories_nodes":[],"categories_segments":[],"categories_sizes":[],"default_left":[0,0,0,0,0,0,0,0,0,0,0,0,0,0,0,0,0],"id":62,"left_children":[1,-1,3,5,7,9,11,13,15,-1,-1,-1,-1,-1,-1,-1,-1],"loss_changes":[5.3713963E1,0E0,5.8066797E0,7.619733E0,8.393526E-1,7.654851E0,9.572916E0,1.2435913E-1,2.3817444E0,0E0,0E0,0E0,0E0,0E0,0E0,0E0,0E0],"parents":[2147483647,0,0,2,2,3,3,4,4,5,5,6,6,7,7,8,8],"right_children":[2,-1,4,6,8,10,12,14,16,-1,-1,-1,-1,-1,-1,-1,-1],"split_conditions":[9.8114496E-1,-5.4190516E-2,1.6694252E0,1E0,2.2512584E0,-6.225455E-1,1.6073651E0,2.3937948E0,9.901344E-1,-1.2211628E-3,3.2389987E-2,-3.3553146E-2,2.705281E-2,5.8493E-2,3.5405766E-2,-7.370743E-2,4.537454E-2],"split_indices":[4,0,3,9,2,3,0,3,0,0,0,0,0,0,0,0,0],"split_type":[0,0,0,0,0,0,0,0,0,0,0,0,0,0,0,0,0],"sum_hessian":[5.909011E2,1.5105093E2,4.3985022E2,3.9524924E2,4.4600975E1,2.8488223E2,1.10367004E2,3.845546E1,6.1455154E0,1.1017956E2,1.7470268E2,7.015277E1,4.0214233E1,2.9187126E1,9.268332E0,1.3890839E0,4.7564316E0],"tree_param":{"num_deleted":"0","num_feature":"24","num_nodes":"17","size_leaf_vector":"1"}},{"base_weights":[1.00104E-1,6.3703485E-2,5.5001166E-2,1.288087E-1,-9.562467E-2,7.509117E-2,4.2055678E-1,-2.2674066E-1,2.6322203E-2,1.9903649E-2,-3.635686E-3,5.834314E-2,1.8144116E-2,-1.0154098E-2,-4.782093E-2,2.5522044E-2,-1.929082E-2],"categories":[],"categories_nodes":[],"categories_segments":[],"categories_sizes":[],"default_left":[0,0,0,0,0,0,0,0,0,0,0,0,0,0,0,0,0],"id":63,"left_children":[1,3,-1,5,7,9,11,13,15,-1,-1,-1,-1,-1,-1,-1,-1],"loss_changes":[1.2626095E1,7.4433312E0,0E0,7.9452915E0,3.3378701E0,5.9616966E0,2.9680195E0,3.1162314E0,5.512163E0,0E0,0E0,0E0,0E0,0E0,0E0,0E0,0E0],"parents":[2147483647,0,0,1,1,3,3,4,4,5,5,6,6,7,7,8,8],"right_children":[2,4,-1,6,8,10,12,14,16,-1,-1,-1,-1,-1,-1,-1,-1],"split_conditions":[2.359581E0,4.38624E-1,5.5001166E-2,1E0,1E0,-6.768086E-1,6.134477E-1,3.8261417E-1,1E0,1.9903649E-2,-3.635686E-3,5.834314E-2,1.8144116E-2,-1.0154098E-2,-4.782093E-2,2.5522044E-2,-1.929082E-2],"split_indices":[6,1,0,13,13,3,3,3,7,0,0,0,0,0,0,0,0],"split_type":[0,0,0,0,0,0,0,0,0,0,0,0,0,0,0,0,0],"sum_hessian":[7.721107E2,7.1537384E2,5.6736897E1,5.079891E2,2.0738474E2,4.3006213E2,7.792697E1,9.9521225E1,1.0786351E2,2.0324274E2,2.2681938E2,4.549673E1,3.243024E1,6.7378845E1,3.214238E1,5.268793E1,5.517558E1],"tree_param":{"num_deleted":"0","num_feature":"24","num_nodes":"17","size_leaf_vector":"1"}},{"base_weights":[-9.221438E-2,-5.3794164E-2,1.4485103E-1,3.2580063E-2,2.4228099E-1,-5.3775407E-2,4.128559E-1,1.23721965E-1,3.824807E-1,-5.571009E-2,-1.4882395E-3,5.0698627E-2,2.6629034E-3,2.0182483E-2,-2.3139613E-2,4.896957E-2,3.3481624E-3],"categories":[],"categories_nodes":[],"categories_segments":[],"categories_sizes":[],"default_left":[0,0,0,0,0,0,0,0,0,0,0,0,0,0,0,0,0],"id":64,"left_children":[1,-1,3,5,7,9,11,13,15,-1,-1,-1,-1,-1,-1,-1,-1],"loss_changes":[5.4914303E1,0E0,3.706437E0,5.2409964E0,2.971922E0,2.5443149E0,1.0599155E0,2.8173566E0,3.079836E0,0E0,0E0,0E0,0E0,0E0,0E0,0E0,0E0],"parents":[2147483647,0,0,2,2,3,3,4,4,5,5,6,6,7,7,8,8],"right_children":[2,-1,4,6,8,10,12,14,16,-1,-1,-1,-1,-1,-1,-1,-1],"split_conditions":[1.3988003E0,-5.3794164E-2,1E0,6.7201746E-1,-5.8120215E-1,-1.0497599E0,1E0,2.482459E-1,7.6793134E-1,-5.571009E-2,-1.4882395E-3,5.0698627E-2,2.6629034E-3,2.0182483E-2,-2.3139613E-2,4.896957E-2,3.3481624E-3],"split_indices":[5,0,7,3,3,3,19,1,0,0,0,0,0,0,0,0,0],"split_type":[0,0,0,0,0,0,0,0,0,0,0,0,0,0,0,0,0],"sum_hessian":[5.17957E2,1.7939386E2,3.3856314E2,1.5792111E2,1.8064203E2,1.2939569E2,2.8525415E1,9.889475E1,8.174727E1,8.325759E0,1.2106994E2,2.2684208E1,5.841208E0,8.141944E1,1.747531E1,6.2227425E1,1.9519848E1],"tree_param":{"num_deleted":"0","num_feature":"24","num_nodes":"17","size_leaf_vector":"1"}},{"base_weights":[6.0951225E-3,-5.386821E-2,1.7416258E-1,-3.9269316E-1,2.0150356E-1,-9.648346E-2,-7.05075E-2,2.8988436E-1,5.9668846E-2,-3.268933E-2,4.719442E-2,-6.5878825E-3,3.507206E-2,-5.472484E-3,4.353582E-2],"categories":[],"categories_nodes":[],"categories_segments":[],"categories_sizes":[],"default_left":[0,0,0,0,0,0,0,0,0,0,0,0,0,0,0],"id":65,"left_children":[1,-1,3,5,7,9,-1,11,13,-1,-1,-1,-1,-1,-1],"loss_changes":[5.3341156E1,0E0,6.979047E0,1.8588605E0,5.315008E0,1.7059445E0,0E0,5.689623E0,7.096193E0,0E0,0E0,0E0,0E0,0E0,0E0],"parents":[2147483647,0,0,2,2,3,3,4,4,5,5,7,7,8,8],"right_children":[2,-1,4,6,8,10,-1,12,14,-1,-1,-1,-1,-1,-1],"split_conditions":[9.8114496E-1,-5.386821E-2,-1.4364922E0,1E0,1E0,-1.1265119E-1,-7.05075E-2,-9.6031475E-1,1.6694252E0,-3.268933E-2,4.719442E-2,-6.5878825E-3,3.507206E-2,-5.472484E-3,4.353582E-2],"split_indices":[4,0,3,16,17,0,0,0,3,0,0,0,0,0,0],"split_type":[0,0,0,0,0,0,0,0,0,0,0,0,0,0,0],"sum_hessian":[5.8056104E2,1.3635902E2,4.4420206E2,1.9824358E1,4.243777E2,1.0847398E1,8.97696E0,2.6081406E2,1.6356364E2,8.021026E0,2.8263729E0,3.8074715E1,2.2273933E2,1.2604003E2,3.7523605E1],"tree_param":{"num_deleted":"0","num_feature":"24","num_nodes":"15","size_leaf_vector":"1"}},{"base_weights":[9.623761E-2,6.251126E-2,5.4328658E-2,2.2179787E-1,6.5975706E-3,5.3800887E-1,1.0642087E-1,6.0754947E-2,-4.8475364E-1,8.8999E-2,3.339375E-2,4.6452533E-2,-6.173506E-4,-3.3666228E-3,2.2757998E-2,-6.8158E-2,-1.9198585E-2],"categories":[],"categories_nodes":[],"categories_segments":[],"categories_sizes":[],"default_left":[0,0,0,0,0,0,0,0,0,0,0,0,0,0,0,0,0],"id":66,"left_children":[1,3,-1,5,7,9,11,13,15,-1,-1,-1,-1,-1,-1,-1,-1],"loss_changes":[1.1578702E1,6.3870883E0,0E0,6.7411175E0,1.4185215E1,3.2632513E0,5.557947E0,7.569187E0,2.9188757E0,0E0,0E0,0E0,0E0,0E0,0E0,0E0,0E0],"parents":[2147483647,0,0,1,1,3,3,4,4,5,5,6,6,7,7,8,8],"right_children":[2,4,-1,6,8,10,12,14,16,-1,-1,-1,-1,-1,-1,-1,-1],"split_conditions":[2.359581E0,-7.913641E-1,5.4328658E-2,1E0,1E0,-1.0385627E0,-8.9447683E-1,1E0,1E0,8.8999E-2,3.339375E-2,4.6452533E-2,-6.173506E-4,-3.3666228E-3,2.2757998E-2,-6.8158E-2,-1.9198585E-2],"split_indices":[6,3,0,7,11,3,0,17,17,0,0,0,0,0,0,0,0],"split_type":[0,0,0,0,0,0,0,0,0,0,0,0,0,0,0,0,0],"sum_hessian":[7.6920685E2,7.163069E2,5.2899933E1,1.8534117E2,5.3096576E2,4.8568256E1,1.3677292E2,4.790415E2,5.1924232E1,1.6591007E1,3.197725E1,3.1969337E1,1.0480357E2,3.0641315E2,1.7262836E2,3.0255527E1,2.1668703E1],"tree_param":{"num_deleted":"0","num_feature":"24","num_nodes":"17","size_leaf_vector":"1"}},{"base_weights":[-1.1628868E-1,-5.3523637E-2,1.030393E-1,-3.9111522E-1,1.23349585E-1,-6.267955E-1,2.8674918E-1,-2.6989654E-1,1.4469196E-1,-1.7177304E-2,-7.043165E-2,6.3903235E-2,-1.37766255E-2,1.2262644E-2,-5.1013824E-2,2.4501897E-2,3.966872E-3],"categories":[],"categories_nodes":[],"categories_segments":[],"categories_sizes":[],"default_left":[0,0,0,0,0,0,0,0,0,0,0,0,0,0,0,0,0],"id":67,"left_children":[1,-1,3,5,7,9,11,13,15,-1,-1,-1,-1,-1,-1,-1,-1],"loss_changes":[4.708783E1,0E0,3.428571E0,2.3422906E0,2.7605853E0,2.443862E-1,7.128975E-1,1.669615E0,3.2379742E0,0E0,0E0,0E0,0E0,0E0,0E0,0E0,0E0],"parents":[2147483647,0,0,2,2,3,3,4,4,5,5,6,6,7,7,8,8],"right_children":[2,-1,4,6,8,10,12,14,16,-1,-1,-1,-1,-1,-1,-1,-1],"split_conditions":[1.3988003E0,-5.3523637E-2,-1.3388829E0,-1.8900074E-1,-1.48731E0,-1.3152742E0,3.625394E-2,-5.0767887E-1,1E0,-1.7177304E-2,-7.043165E-2,6.3903235E-2,-1.37766255E-2,1.2262644E-2,-5.1013824E-2,2.4501897E-2,3.966872E-3],"split_indices":[5,0,0,2,3,2,2,0,8,0,0,0,0,0,0,0,0],"split_type":[0,0,0,0,0,0,0,0,0,0,0,0,0,0,0,0,0],"sum_hessian":[5.1085373E2,1.7504758E2,3.3580615E2,1.2536352E1,3.2326978E2,9.358071E0,3.178281E0,1.604191E1,3.0722787E2,1.8303505E0,7.5277205E0,1.4607553E0,1.7175258E0,6.276505E0,9.765404E0,1.5644525E2,1.5078262E2],"tree_param":{"num_deleted":"0","num_feature":"24","num_nodes":"17","size_leaf_vector":"1"}},{"base_weights":[-8.8560255E-3,-5.3558785E-2,1.4623645E-1,2.4239238E-2,2.9189724E-1,1.5059799E-1,-2.0611686E-1,3.9605802E-1,1.6749655E-1,-5.7820203E-3,4.147873E-2,-3.2325443E-2,2.0882694E-2,8.165547E-4,4.4722665E-2,-1.0101947E-2,3.8284782E-2],"categories":[],"categories_nodes":[],"categories_segments":[],"categories_sizes":[],"default_left":[0,0,0,0,0,0,0,0,0,0,0,0,0,0,0,0,0],"id":68,"left_children":[1,-1,3,5,7,9,11,13,15,-1,-1,-1,-1,-1,-1,-1,-1],"loss_changes":[4.643717E1,0E0,7.797324E0,7.019662E0,2.526331E0,8.593006E0,4.2218876E0,2.143299E0,5.4116464E0,0E0,0E0,0E0,0E0,0E0,0E0,0E0,0E0],"parents":[2147483647,0,0,2,2,3,3,4,4,5,5,6,6,7,7,8,8],"right_children":[2,-1,4,6,8,10,12,14,16,-1,-1,-1,-1,-1,-1,-1,-1],"split_conditions":[9.8114496E-1,-5.3558785E-2,2.1017028E-1,1E0,1E0,-5.6311446E-1,1E0,-8.647648E-1,1.067363E0,-5.7820203E-3,4.147873E-2,-3.2325443E-2,2.0882694E-2,8.165547E-4,4.4722665E-2,-1.0101947E-2,3.8284782E-2],"split_indices":[4,0,1,17,13,3,11,2,3,0,0,0,0,0,0,0,0],"split_type":[0,0,0,0,0,0,0,0,0,0,0,0,0,0,0,0,0],"sum_hessian":[5.664823E2,1.2829794E2,4.381844E2,2.3909685E2,1.9908754E2,1.546254E2,8.447146E1,1.0717016E2,9.191737E1,8.687282E1,6.775258E1,6.604741E1,1.8424046E1,1.2624852E1,9.454531E1,4.114528E1,5.077209E1],"tree_param":{"num_deleted":"0","num_feature":"24","num_nodes":"17","size_leaf_vector":"1"}},{"base_weights":[9.105853E-2,5.7698946E-2,5.375574E-2,9.24775E-2,-1.9348887E-1,3.895609E-2,3.0589318E-1,-5.9473306E-2,-1.1921365E-1,1.5260992E-2,-5.6664543E-3,4.3186694E-2,-1.0316356E-2,-4.3574523E-2,4.9270564E-3],"categories":[],"categories_nodes":[],"categories_segments":[],"categories_sizes":[],"default_left":[0,0,0,0,0,0,0,0,0,0,0,0,0,0,0],"id":69,"left_children":[1,3,-1,5,7,9,11,-1,13,-1,-1,-1,-1,-1,-1],"loss_changes":[1.113858E1,6.1232443E0,0E0,7.0077477E0,2.4718225E0,5.360786E0,6.386612E0,0E0,3.927568E0,0E0,0E0,0E0,0E0,0E0,0E0],"parents":[2147483647,0,0,1,1,3,3,4,4,5,5,6,6,8,8],"right_children":[2,4,-1,6,8,10,12,-1,14,-1,-1,-1,-1,-1,-1],"split_conditions":[2.359581E0,1.188809E0,5.375574E-2,1E0,1E0,-6.423558E-1,1.123985E0,-5.9473306E-2,1E0,1.5260992E-2,-5.6664543E-3,4.3186694E-2,-1.0316356E-2,-4.3574523E-2,4.9270564E-3],"split_indices":[6,3,0,13,17,3,1,0,13,0,0,0,0,0,0],"split_type":[0,0,0,0,0,0,0,0,0,0,0,0,0,0,0],"sum_hessian":[7.4888837E2,6.9787665E2,5.101172E1,6.1355756E2,8.431912E1,4.914835E2,1.2207406E2,1.2075979E1,7.224314E1,2.2429385E2,2.6718964E2,9.3288895E1,2.8785164E1,2.45447E1,4.7698437E1],"tree_param":{"num_deleted":"0","num_feature":"24","num_nodes":"15","size_leaf_vector":"1"}},{"base_weights":[-1.15294516E-1,4.458652E-2,-5.3419244E-2,8.848767E-2,-5.031484E-2,-3.078205E-1,1.073736E-1,-4.588924E-2,-1.946963E-3,4.5031137E-4,2.0177245E-2],"categories":[],"categories_nodes":[],"categories_segments":[],"categories_sizes":[],"default_left":[0,0,0,0,0,0,0,0,0,0,0],"id":70,"left_children":[1,3,-1,5,-1,7,9,-1,-1,-1,-1],"loss_changes":[3.3365395E1,8.730803E0,0E0,2.5424984E0,0E0,6.666837E-1,3.1140378E0,0E0,0E0,0E0,0E0],"parents":[2147483647,0,0,1,1,3,3,5,5,6,6],"right_children":[2,4,-1,6,-1,8,10,-1,-1,-1,-1],"split_conditions":[9.8114496E-1,2.359581E0,-5.3419244E-2,-1.2977343E0,-5.031484E-2,1.7209466E-1,1E0,-4.588924E-2,-1.946963E-3,4.5031137E-4,2.0177245E-2],"split_indices":[4,6,0,0,0,1,7,0,0,0,0],"split_type":[0,0,0,0,0,0,0,0,0,0,0],"sum_hessian":[4.9682996E2,3.6023312E2,1.3659685E2,3.34279E2,2.595413E1,1.4509448E1,3.1976953E2,9.133052E0,5.376396E0,1.5351994E2,1.662496E2],"tree_param":{"num_deleted":"0","num_feature":"24","num_nodes":"11","size_leaf_vector":"1"}},{"base_weights":[-3.0868031E-2,-5.332913E-2,1.20110095E-1,1.1187233E-2,2.4700871E-1,6.585845E-2,-3.7382165E-1,4.008108E-1,5.908629E-2,1.3844158E-2,-9.088595E-3,-1.86881E-2,-6.78168E-2,4.216031E-2,-1.8284755E-2,-8.248583E-3,4.705559E-2],"categories":[],"categories_nodes":[],"categories_segments":[],"categories_sizes":[],"default_left":[0,0,0,0,0,0,0,0,0,0,0,0,0,0,0,0,0],"id":71,"left_children":[1,-1,3,5,7,9,11,13,15,-1,-1,-1,-1,-1,-1,-1,-1],"loss_changes":[4.182449E1,0E0,5.859745E0,4.850751E0,5.6371326E0,2.3064404E0,1.5038328E0,1.3820667E0,5.24213E0,0E0,0E0,0E0,0E0,0E0,0E0,0E0,0E0],"parents":[2147483647,0,0,2,2,3,3,4,4,5,5,6,6,7,7,8,8],"right_children":[2,-1,4,6,8,10,12,14,16,-1,-1,-1,-1,-1,-1,-1,-1],"split_conditions":[9.8114496E-1,-5.332913E-2,2.1017028E-1,1E0,1E0,1E0,1E0,1E0,1.6189681E0,1.3844158E-2,-9.088595E-3,-1.86881E-2,-6.78168E-2,4.216031E-2,-1.8284755E-2,-8.248583E-3,4.705559E-2],"split_indices":[4,0,1,13,13,17,22,12,1,0,0,0,0,0,0,0,0],"split_type":[0,0,0,0,0,0,0,0,0,0,0,0,0,0,0,0,0],"sum_hessian":[5.495304E2,1.2639208E2,4.2313834E2,2.2828183E2,1.948565E2,2.006224E2,2.7659416E1,1.0653323E2,8.832328E1,1.3720438E2,6.3418026E1,1.8134552E1,9.524865E0,1.0313674E2,3.3964915E0,6.6308426E1,2.2014849E1],"tree_param":{"num_deleted":"0","num_feature":"24","num_nodes":"17","size_leaf_vector":"1"}},{"base_weights":[6.821568E-2,3.754465E-2,5.3155698E-2,1.3766338E-1,-5.2440394E-2,7.657107E-1,1.0165913E-1,1.8300756E-3,-4.2393294E-1,8.64206E-2,2.8485765E-3,1.7347557E-2,-1.3304426E-2,-6.560524E-3,3.5394233E-2,-3.1757753E-2,-6.150461E-2],"categories":[],"categories_nodes":[],